FANN_FLO_2.1
num_layers=3
learning_rate=0.700000
connection_rate=1.000000
network_type=0
learning_momentum=0.400000
training_algorithm=0
train_error_function=1
train_stop_function=0
cascade_output_change_fraction=0.010000
quickprop_decay=-0.000100
quickprop_mu=1.750000
rprop_increase_factor=1.200000
rprop_decrease_factor=0.500000
rprop_delta_min=0.000000
rprop_delta_max=50.000000
rprop_delta_zero=0.100000
cascade_output_stagnation_epochs=12
cascade_candidate_change_fraction=0.010000
cascade_candidate_stagnation_epochs=12
cascade_max_out_epochs=150
cascade_min_out_epochs=50
cascade_max_cand_epochs=150
cascade_min_cand_epochs=50
cascade_num_candidate_groups=2
bit_fail_limit=3.49999994039535522461e-01
cascade_candidate_limit=1.00000000000000000000e+03
cascade_weight_multiplier=4.00000005960464477539e-01
cascade_activation_functions_count=10
cascade_activation_functions=3 5 7 8 10 11 14 15 16 17 
cascade_activation_steepnesses_count=4
cascade_activation_steepnesses=2.50000000000000000000e-01 5.00000000000000000000e-01 7.50000000000000000000e-01 1.00000000000000000000e+00 
layer_sizes=49 97 4 
scale_included=0
neurons (num_inputs, activation_function, activation_steepness)=(0, 0, 0.00000000000000000000e+00) (0, 0, 0.00000000000000000000e+00) (0, 0, 0.00000000000000000000e+00) (0, 0, 0.00000000000000000000e+00) (0, 0, 0.00000000000000000000e+00) (0, 0, 0.00000000000000000000e+00) (0, 0, 0.00000000000000000000e+00) (0, 0, 0.00000000000000000000e+00) (0, 0, 0.00000000000000000000e+00) (0, 0, 0.00000000000000000000e+00) (0, 0, 0.00000000000000000000e+00) (0, 0, 0.00000000000000000000e+00) (0, 0, 0.00000000000000000000e+00) (0, 0, 0.00000000000000000000e+00) (0, 0, 0.00000000000000000000e+00) (0, 0, 0.00000000000000000000e+00) (0, 0, 0.00000000000000000000e+00) (0, 0, 0.00000000000000000000e+00) (0, 0, 0.00000000000000000000e+00) (0, 0, 0.00000000000000000000e+00) (0, 0, 0.00000000000000000000e+00) (0, 0, 0.00000000000000000000e+00) (0, 0, 0.00000000000000000000e+00) (0, 0, 0.00000000000000000000e+00) (0, 0, 0.00000000000000000000e+00) (0, 0, 0.00000000000000000000e+00) (0, 0, 0.00000000000000000000e+00) (0, 0, 0.00000000000000000000e+00) (0, 0, 0.00000000000000000000e+00) (0, 0, 0.00000000000000000000e+00) (0, 0, 0.00000000000000000000e+00) (0, 0, 0.00000000000000000000e+00) (0, 0, 0.00000000000000000000e+00) (0, 0, 0.00000000000000000000e+00) (0, 0, 0.00000000000000000000e+00) (0, 0, 0.00000000000000000000e+00) (0, 0, 0.00000000000000000000e+00) (0, 0, 0.00000000000000000000e+00) (0, 0, 0.00000000000000000000e+00) (0, 0, 0.00000000000000000000e+00) (0, 0, 0.00000000000000000000e+00) (0, 0, 0.00000000000000000000e+00) (0, 0, 0.00000000000000000000e+00) (0, 0, 0.00000000000000000000e+00) (0, 0, 0.00000000000000000000e+00) (0, 0, 0.00000000000000000000e+00) (0, 0, 0.00000000000000000000e+00) (0, 0, 0.00000000000000000000e+00) (0, 0, 0.00000000000000000000e+00) (49, 4, 5.00000000000000000000e-01) (49, 4, 5.00000000000000000000e-01) (49, 4, 5.00000000000000000000e-01) (49, 4, 5.00000000000000000000e-01) (49, 4, 5.00000000000000000000e-01) (49, 4, 5.00000000000000000000e-01) (49, 4, 5.00000000000000000000e-01) (49, 4, 5.00000000000000000000e-01) (49, 4, 5.00000000000000000000e-01) (49, 4, 5.00000000000000000000e-01) (49, 4, 5.00000000000000000000e-01) (49, 4, 5.00000000000000000000e-01) (49, 4, 5.00000000000000000000e-01) (49, 4, 5.00000000000000000000e-01) (49, 4, 5.00000000000000000000e-01) (49, 4, 5.00000000000000000000e-01) (49, 4, 5.00000000000000000000e-01) (49, 4, 5.00000000000000000000e-01) (49, 4, 5.00000000000000000000e-01) (49, 4, 5.00000000000000000000e-01) (49, 4, 5.00000000000000000000e-01) (49, 4, 5.00000000000000000000e-01) (49, 4, 5.00000000000000000000e-01) (49, 4, 5.00000000000000000000e-01) (49, 4, 5.00000000000000000000e-01) (49, 4, 5.00000000000000000000e-01) (49, 4, 5.00000000000000000000e-01) (49, 4, 5.00000000000000000000e-01) (49, 4, 5.00000000000000000000e-01) (49, 4, 5.00000000000000000000e-01) (49, 4, 5.00000000000000000000e-01) (49, 4, 5.00000000000000000000e-01) (49, 4, 5.00000000000000000000e-01) (49, 4, 5.00000000000000000000e-01) (49, 4, 5.00000000000000000000e-01) (49, 4, 5.00000000000000000000e-01) (49, 4, 5.00000000000000000000e-01) (49, 4, 5.00000000000000000000e-01) (49, 4, 5.00000000000000000000e-01) (49, 4, 5.00000000000000000000e-01) (49, 4, 5.00000000000000000000e-01) (49, 4, 5.00000000000000000000e-01) (49, 4, 5.00000000000000000000e-01) (49, 4, 5.00000000000000000000e-01) (49, 4, 5.00000000000000000000e-01) (49, 4, 5.00000000000000000000e-01) (49, 4, 5.00000000000000000000e-01) (49, 4, 5.00000000000000000000e-01) (49, 4, 5.00000000000000000000e-01) (49, 4, 5.00000000000000000000e-01) (49, 4, 5.00000000000000000000e-01) (49, 4, 5.00000000000000000000e-01) (49, 4, 5.00000000000000000000e-01) (49, 4, 5.00000000000000000000e-01) (49, 4, 5.00000000000000000000e-01) (49, 4, 5.00000000000000000000e-01) (49, 4, 5.00000000000000000000e-01) (49, 4, 5.00000000000000000000e-01) (49, 4, 5.00000000000000000000e-01) (49, 4, 5.00000000000000000000e-01) (49, 4, 5.00000000000000000000e-01) (49, 4, 5.00000000000000000000e-01) (49, 4, 5.00000000000000000000e-01) (49, 4, 5.00000000000000000000e-01) (49, 4, 5.00000000000000000000e-01) (49, 4, 5.00000000000000000000e-01) (49, 4, 5.00000000000000000000e-01) (49, 4, 5.00000000000000000000e-01) (49, 4, 5.00000000000000000000e-01) (49, 4, 5.00000000000000000000e-01) (49, 4, 5.00000000000000000000e-01) (49, 4, 5.00000000000000000000e-01) (49, 4, 5.00000000000000000000e-01) (49, 4, 5.00000000000000000000e-01) (49, 4, 5.00000000000000000000e-01) (49, 4, 5.00000000000000000000e-01) (49, 4, 5.00000000000000000000e-01) (49, 4, 5.00000000000000000000e-01) (49, 4, 5.00000000000000000000e-01) (49, 4, 5.00000000000000000000e-01) (49, 4, 5.00000000000000000000e-01) (49, 4, 5.00000000000000000000e-01) (49, 4, 5.00000000000000000000e-01) (49, 4, 5.00000000000000000000e-01) (49, 4, 5.00000000000000000000e-01) (49, 4, 5.00000000000000000000e-01) (49, 4, 5.00000000000000000000e-01) (49, 4, 5.00000000000000000000e-01) (49, 4, 5.00000000000000000000e-01) (49, 4, 5.00000000000000000000e-01) (49, 4, 5.00000000000000000000e-01) (49, 4, 5.00000000000000000000e-01) (49, 4, 5.00000000000000000000e-01) (49, 4, 5.00000000000000000000e-01) (49, 4, 5.00000000000000000000e-01) (49, 4, 5.00000000000000000000e-01) (0, 0, 0.00000000000000000000e+00) (97, 4, 5.00000000000000000000e-01) (97, 4, 5.00000000000000000000e-01) (97, 4, 5.00000000000000000000e-01) (0, 0, 0.00000000000000000000e+00) 
connections (connected_to_neuron, weight)=(0, -2.17705052345991134644e-02) (1, -1.71271920204162597656e-01) (2, -2.68433541059494018555e-01) (3, -2.21930921077728271484e-01) (4, -2.23718315362930297852e-01) (5, -1.83698564767837524414e-01) (6, -8.22297483682632446289e-02) (7, -7.44153419509530067444e-03) (8, -7.88977593183517456055e-02) (9, -2.64364987611770629883e-01) (10, -1.54593244194984436035e-01) (11, -2.16725111007690429688e-01) (12, -2.84289538860321044922e-01) (13, -1.24311730265617370605e-01) (14, 2.13426165282726287842e-02) (15, -4.16153334081172943115e-02) (16, -2.47905820608139038086e-01) (17, -3.06431889533996582031e-01) (18, -1.42939001321792602539e-01) (19, -2.44494408369064331055e-01) (20, -3.22580277919769287109e-01) (21, -3.25747251510620117188e-01) (22, -1.55984997749328613281e-01) (23, -1.63027033209800720215e-01) (24, -2.61169940233230590820e-01) (25, -2.75121659040451049805e-01) (26, -2.10750490427017211914e-01) (27, -3.40196043252944946289e-01) (28, -2.64224231243133544922e-01) (29, -3.26222866773605346680e-01) (30, -2.92977988719940185547e-01) (31, -3.87297362089157104492e-01) (32, -9.06020123511552810669e-03) (33, -4.02981013059616088867e-01) (34, -3.80840897560119628906e-01) (35, -4.90129441022872924805e-01) (36, -3.65051805973052978516e-01) (37, -2.18916580080986022949e-01) (38, -3.25982511043548583984e-01) (39, -4.26544845104217529297e-02) (40, -3.05851195007562637329e-02) (41, -2.49139547348022460938e-01) (42, -1.92514002323150634766e-01) (43, -5.76881289482116699219e-01) (44, -4.43662434816360473633e-01) (45, -2.10337191820144653320e-01) (46, -6.16310946643352508545e-02) (47, -5.15563823282718658447e-02) (48, -1.28085052967071533203e+00) (0, -6.08249660581350326538e-03) (1, -9.90852564573287963867e-02) (2, -9.70224216580390930176e-02) (3, -3.09368632733821868896e-02) (4, -2.05802351236343383789e-01) (5, -1.54722422361373901367e-01) (6, -1.94810554385185241699e-01) (7, -3.62546071410179138184e-02) (8, -1.27253800630569458008e-01) (9, -1.61152333021163940430e-01) (10, -1.05956010520458221436e-01) (11, -1.51744857430458068848e-01) (12, -1.31085500121116638184e-01) (13, -1.22493028640747070312e-01) (14, -7.53435418009757995605e-02) (15, -2.37471431493759155273e-01) (16, -7.15432539582252502441e-02) (17, -1.80051252245903015137e-01) (18, -7.01595321297645568848e-02) (19, -2.48655781149864196777e-01) (20, -1.43426552414894104004e-01) (21, -2.45574966073036193848e-01) (22, -1.43284693360328674316e-01) (23, 6.01452589035034179688e-02) (24, -1.95824027061462402344e-01) (25, -3.92025075852870941162e-02) (26, -1.99930503964424133301e-01) (27, -1.66126579046249389648e-01) (28, -1.73754870891571044922e-01) (29, -1.08601942658424377441e-01) (30, 4.17580455541610717773e-02) (31, -6.35083839297294616699e-02) (32, -2.08287000656127929688e-01) (33, -2.40356311202049255371e-01) (34, -8.51848442107439041138e-03) (35, -2.48013526201248168945e-01) (36, -2.71204590797424316406e-01) (37, 1.31326988339424133301e-02) (38, 7.77877820655703544617e-03) (39, -7.83310234546661376953e-02) (40, -7.98226520419120788574e-02) (41, -1.36078581213951110840e-01) (42, -1.51233784854412078857e-02) (43, -2.85769313573837280273e-01) (44, -1.89149752259254455566e-01) (45, -2.94399652630090713501e-02) (46, -1.34216010570526123047e-01) (47, -1.05130024254322052002e-01) (48, -1.53539335727691650391e+00) (0, -3.69366928935050964355e-02) (1, -1.53990909457206726074e-01) (2, -1.71816706657409667969e-01) (3, -5.39524257183074951172e-02) (4, -3.50183069705963134766e-01) (5, -3.27273190021514892578e-01) (6, -1.71176463365554809570e-01) (7, 6.28551244735717773438e-02) (8, -4.03445921838283538818e-02) (9, -2.78741121292114257812e-01) (10, -1.55031740665435791016e-01) (11, -2.66589790582656860352e-01) (12, -4.13235038518905639648e-01) (13, -1.55621916055679321289e-01) (14, -1.12227834761142730713e-01) (15, 1.35153353214263916016e-01) (16, -3.62553864717483520508e-01) (17, -3.14964950084686279297e-01) (18, -1.42037913203239440918e-01) (19, -3.78602534532546997070e-01) (20, -3.32619547843933105469e-01) (21, -4.33838576078414916992e-01) (22, -2.34490990638732910156e-01) (23, -4.21305686235427856445e-01) (24, -3.54090064764022827148e-01) (25, -2.08730101585388183594e-01) (26, -5.33692896366119384766e-01) (27, -3.59292209148406982422e-01) (28, -5.41505932807922363281e-01) (29, -3.96509051322937011719e-01) (30, -4.98099684715270996094e-01) (31, -3.47577929496765136719e-01) (32, 2.69823055714368820190e-02) (33, -3.69558483362197875977e-01) (34, -5.14553248882293701172e-01) (35, -7.51430928707122802734e-01) (36, -3.66780489683151245117e-01) (37, -3.30446809530258178711e-01) (38, -3.08853358030319213867e-01) (39, -1.17392316460609436035e-01) (40, 1.47983193397521972656e-01) (41, -1.74163192510604858398e-01) (42, -1.28562062978744506836e-01) (43, -1.05563676357269287109e+00) (44, -4.93275523185729980469e-01) (45, -3.36291521787643432617e-01) (46, -3.45538929104804992676e-02) (47, -1.04320913553237915039e-01) (48, -9.02425110340118408203e-01) (0, -1.15560725331306457520e-01) (1, -1.54543429613113403320e-01) (2, -5.42220734059810638428e-02) (3, -7.11156651377677917480e-02) (4, -1.03040672838687896729e-01) (5, 1.42152339220046997070e-01) (6, 4.52519655227661132812e-02) (7, 1.87595590949058532715e-01) (8, -3.56999605894088745117e-01) (9, 2.16425105929374694824e-01) (10, 2.45990097522735595703e-01) (11, -4.01737838983535766602e-02) (12, -5.52743792533874511719e-01) (13, 1.14253163337707519531e-02) (14, -2.09098353981971740723e-01) (15, -4.55223649740219116211e-01) (16, 3.13799530267715454102e-01) (17, 2.44130894541740417480e-01) (18, 4.83423233032226562500e-01) (19, 2.90288850665092468262e-02) (20, 3.59699949622154235840e-02) (21, -2.56329625844955444336e-02) (22, -1.43150119110941886902e-02) (23, 3.72395992279052734375e-01) (24, 1.83927208185195922852e-01) (25, 5.39726853370666503906e-01) (26, 2.65163332223892211914e-01) (27, 1.22333809733390808105e-01) (28, -2.91491091251373291016e-01) (29, 3.77536177635192871094e-01) (30, 7.34663784503936767578e-01) (31, 8.66376221179962158203e-01) (32, 2.56582826375961303711e-01) (33, 7.35138058662414550781e-01) (34, 8.01396012306213378906e-01) (35, 6.02652192115783691406e-01) (36, 1.87652856111526489258e-01) (37, 5.13421595096588134766e-01) (38, 4.18971747159957885742e-01) (39, 3.39892566204071044922e-01) (40, 1.83972015976905822754e-01) (41, 6.04148149490356445312e-01) (42, 1.29173442721366882324e-01) (43, 7.30063498020172119141e-01) (44, 2.33327776193618774414e-01) (45, 8.02601948380470275879e-02) (46, -2.24321171641349792480e-01) (47, 7.02495947480201721191e-02) (48, -1.65922927856445312500e+00) (0, -1.65350690484046936035e-01) (1, -1.61572754383087158203e-01) (2, -1.10082931816577911377e-01) (3, -9.04940590262413024902e-02) (4, -5.60335777699947357178e-02) (5, -1.20581060647964477539e-01) (6, -1.74679175019264221191e-01) (7, -3.07290442287921905518e-02) (8, -1.77252009510993957520e-01) (9, 4.60835099220275878906e-02) (10, 6.02609366178512573242e-02) (11, -2.15902682393789291382e-02) (12, -1.84264510869979858398e-01) (13, -1.39811247587203979492e-01) (14, -2.22901925444602966309e-01) (15, 8.90176519751548767090e-02) (16, -8.22098180651664733887e-02) (17, -2.15648133307695388794e-02) (18, -5.58067858219146728516e-02) (19, -1.39287143945693969727e-01) (20, -1.90483316779136657715e-01) (21, -1.09962232410907745361e-01) (22, -6.34336620569229125977e-02) (23, -7.94720500707626342773e-02) (24, 4.76338453590869903564e-02) (25, -9.97813791036605834961e-02) (26, -1.11619748175144195557e-01) (27, -1.33637979626655578613e-01) (28, -2.61016339063644409180e-01) (29, -7.74810388684272766113e-02) (30, -2.21847906708717346191e-01) (31, -2.06216782331466674805e-01) (32, 9.25695151090621948242e-02) (33, -4.56511080265045166016e-02) (34, -7.78683945536613464355e-02) (35, -1.73275411128997802734e-01) (36, -1.97629779577255249023e-01) (37, -1.45685911178588867188e-01) (38, -1.43018856644630432129e-01) (39, -1.04612633585929870605e-01) (40, 1.86207424849271774292e-02) (41, 2.76008676737546920776e-02) (42, -9.40506085753440856934e-02) (43, -2.95823097229003906250e-01) (44, -2.15786293148994445801e-01) (45, -1.32545650005340576172e-01) (46, -8.95738229155540466309e-02) (47, -2.57579028606414794922e-01) (48, -1.55223929882049560547e+00) (0, -7.04241916537284851074e-02) (1, -8.53437930345535278320e-02) (2, 6.80867359042167663574e-02) (3, -9.10203456878662109375e-02) (4, -4.88599985837936401367e-02) (5, 5.89235126972198486328e-03) (6, -1.41561642289161682129e-01) (7, -3.67212705314159393311e-02) (8, -9.40063297748565673828e-02) (9, 9.71691962331533432007e-03) (10, 4.94163930416107177734e-02) (11, 3.22335697710514068604e-02) (12, -1.82816937565803527832e-01) (13, -2.30437561869621276855e-01) (14, -1.42240881919860839844e-01) (15, -2.46526114642620086670e-02) (16, 4.23954008147120475769e-03) (17, 7.50900954008102416992e-02) (18, -9.49645042419433593750e-02) (19, 9.05021373182535171509e-03) (20, -9.92160364985466003418e-02) (21, -8.42814594507217407227e-02) (22, 4.22975420951843261719e-02) (23, -3.91826704144477844238e-02) (24, 1.74508929252624511719e-01) (25, 2.51995716243982315063e-02) (26, 8.62730741500854492188e-02) (27, -8.49806368350982666016e-02) (28, -1.42622038722038269043e-01) (29, -4.54961247742176055908e-02) (30, -1.94642320275306701660e-02) (31, -6.01916573941707611084e-03) (32, -1.18450261652469635010e-01) (33, 9.95233207941055297852e-02) (34, 4.33608051389455795288e-03) (35, -4.04483713209629058838e-02) (36, -2.35971555113792419434e-01) (37, -3.42521667480468750000e-02) (38, 6.64064362645149230957e-02) (39, -1.42656654119491577148e-01) (40, -1.85756146907806396484e-01) (41, -3.61763499677181243896e-02) (42, -1.44370973110198974609e-01) (43, -2.10113488137722015381e-02) (44, -1.98391005396842956543e-01) (45, -2.08752632141113281250e-01) (46, -9.03454348444938659668e-02) (47, -1.74621105194091796875e-01) (48, -1.63187599182128906250e+00) (0, -1.76012024283409118652e-01) (1, -4.05815124511718750000e-01) (2, -3.34205865859985351562e-01) (3, -3.81156742572784423828e-01) (4, -4.37811583280563354492e-01) (5, -1.12923063337802886963e-01) (6, -2.37435951828956604004e-01) (7, -2.74734258651733398438e-01) (8, 1.20122492313385009766e-01) (9, -6.29656463861465454102e-02) (10, -1.95323973894119262695e-01) (11, -2.29510702192783355713e-02) (12, -6.05917274951934814453e-01) (13, -4.07538354396820068359e-01) (14, -3.37007254362106323242e-01) (15, -1.31422996520996093750e-01) (16, 1.86437830328941345215e-01) (17, 2.71846167743206024170e-02) (18, -8.31564739346504211426e-02) (19, -4.15701329708099365234e-01) (20, -2.01945230364799499512e-01) (21, -1.99291452765464782715e-01) (22, -1.69676393270492553711e-02) (23, -4.01047885417938232422e-01) (24, 4.08226162195205688477e-01) (25, -2.47006770223379135132e-02) (26, -2.67749605700373649597e-03) (27, -2.37777978181838989258e-01) (28, -1.38032317161560058594e-01) (29, -3.73316079378128051758e-01) (30, -3.24984461069107055664e-01) (31, -2.58145421743392944336e-01) (32, -1.06250196695327758789e-01) (33, 1.99969038367271423340e-01) (34, 1.47862592712044715881e-02) (35, -2.01123312115669250488e-01) (36, -6.22316956520080566406e-01) (37, -2.39173963665962219238e-01) (38, -3.23687463998794555664e-01) (39, -1.73630312085151672363e-01) (40, -3.56244176626205444336e-01) (41, -1.61181002855300903320e-01) (42, 4.03994061052799224854e-02) (43, -9.28240567445755004883e-02) (44, -4.22272384166717529297e-01) (45, 1.17177534848451614380e-02) (46, 7.31237756554037332535e-04) (47, -2.13677972555160522461e-01) (48, -1.59797799587249755859e+00) (0, -9.90108866244554519653e-03) (1, 1.94386150687932968140e-02) (2, -3.19355458486825227737e-05) (3, -5.88155575096607208252e-02) (4, -1.06388740241527557373e-01) (5, 5.95769770443439483643e-02) (6, -1.10271051526069641113e-01) (7, -3.08507289737462997437e-02) (8, -1.15268841385841369629e-01) (9, -9.93231777101755142212e-03) (10, 2.27479208260774612427e-02) (11, -9.11556743085384368896e-03) (12, -1.80122390389442443848e-01) (13, -1.28849148750305175781e-01) (14, -9.88404154777526855469e-02) (15, -1.58556401729583740234e-01) (16, -3.69153544306755065918e-02) (17, 1.09906643629074096680e-01) (18, 3.88739793561398983002e-03) (19, -4.24291715025901794434e-02) (20, -1.73770040273666381836e-01) (21, -9.29837971925735473633e-02) (22, -2.92476173490285873413e-03) (23, 1.53654545545578002930e-01) (24, 1.79338306188583374023e-02) (25, -7.43908807635307312012e-02) (26, 1.05386398732662200928e-01) (27, -9.66818630695343017578e-02) (28, -8.75345990061759948730e-02) (29, -7.54486769437789916992e-02) (30, 1.76578480750322341919e-02) (31, 1.14367313683032989502e-01) (32, -1.39219418168067932129e-01) (33, 1.26644343137741088867e-01) (34, 1.41678825020790100098e-01) (35, -8.53019021451473236084e-03) (36, -9.96690690517425537109e-02) (37, -1.68443340808153152466e-02) (38, 1.44870216026902198792e-02) (39, -1.50374770164489746094e-01) (40, -3.77793125808238983154e-02) (41, 1.00718274712562561035e-01) (42, 4.77459840476512908936e-03) (43, 1.49701405316591262817e-02) (44, -3.35193388164043426514e-02) (45, -2.14530974626541137695e-02) (46, -1.64462812244892120361e-02) (47, -9.60599537938833236694e-03) (48, -1.65689253807067871094e+00) (0, -7.40611627697944641113e-02) (1, -1.59834071993827819824e-01) (2, -9.90098118782043457031e-02) (3, -2.28502914309501647949e-01) (4, -3.28412353992462158203e-01) (5, -5.52640706300735473633e-02) (6, -8.22113677859306335449e-02) (7, -1.29758179187774658203e-01) (8, -7.37726688385009765625e-02) (9, -1.60343602299690246582e-01) (10, -2.20649182796478271484e-01) (11, -9.10306945443153381348e-02) (12, -1.90368905663490295410e-01) (13, -8.39755013585090637207e-02) (14, 2.46432553976774215698e-02) (15, -3.43437702395021915436e-03) (16, -1.83692067861557006836e-01) (17, -1.99052423238754272461e-01) (18, -1.99667513370513916016e-01) (19, -2.11233898997306823730e-01) (20, -1.73448905348777770996e-01) (21, -2.68887460231781005859e-01) (22, -1.74859553575515747070e-01) (23, -1.59263178706169128418e-01) (24, -1.77328795194625854492e-01) (25, -1.17952130734920501709e-01) (26, -2.62812763452529907227e-01) (27, -2.28164598345756530762e-01) (28, -2.70440071821212768555e-01) (29, -2.76132553815841674805e-01) (30, -2.87095546722412109375e-01) (31, -9.93766412138938903809e-02) (32, -1.68579202145338058472e-02) (33, -1.45024538040161132812e-01) (34, -1.30855128169059753418e-01) (35, -3.76443028450012207031e-01) (36, -2.60459184646606445312e-01) (37, -2.14050889015197753906e-01) (38, -1.81309282779693603516e-01) (39, -1.57990112900733947754e-01) (40, -5.30125238001346588135e-02) (41, -1.06926620006561279297e-01) (42, -9.41865891218185424805e-03) (43, -3.51966619491577148438e-01) (44, -3.74738931655883789062e-01) (45, -1.09996587038040161133e-01) (46, -1.58648952841758728027e-01) (47, -8.91012847423553466797e-02) (48, -1.42771649360656738281e+00) (0, -3.17100547254085540771e-02) (1, -2.25821748375892639160e-01) (2, 1.31020760163664817810e-02) (3, 1.93288072943687438965e-01) (4, -1.38411134481430053711e-01) (5, -2.95257806777954101562e-01) (6, -4.49293665587902069092e-02) (7, -3.41600716114044189453e-01) (8, 5.03283888101577758789e-02) (9, -7.05904364585876464844e-01) (10, -1.07652977108955383301e-01) (11, -3.69516342878341674805e-01) (12, -1.09856262803077697754e-01) (13, -2.62739602476358413696e-02) (14, 3.15277516841888427734e-01) (15, -2.88448572158813476562e-01) (16, -4.72288489341735839844e-01) (17, -9.64040279388427734375e-01) (18, -2.88804948329925537109e-01) (19, -5.75081586837768554688e-01) (20, -4.90066826343536376953e-01) (21, -2.16931492090225219727e-01) (22, -3.43382596969604492188e-01) (23, 3.12951952219009399414e-01) (24, -7.71952986717224121094e-01) (25, -8.75010311603546142578e-01) (26, -8.10239195823669433594e-01) (27, -6.32134616374969482422e-01) (28, -6.26583576202392578125e-01) (29, -7.04970955848693847656e-01) (30, -2.55890935659408569336e-01) (31, 6.10640794038772583008e-02) (32, -3.27771842479705810547e-01) (33, -1.09253227710723876953e+00) (34, -7.59685754776000976562e-01) (35, -8.02242755889892578125e-01) (36, -5.61432480812072753906e-01) (37, -3.53809177875518798828e-01) (38, -5.67478537559509277344e-01) (39, 8.75345245003700256348e-03) (40, 5.75694404542446136475e-02) (41, -5.42442560195922851562e-01) (42, -2.95240938663482666016e-01) (43, -9.78726089000701904297e-01) (44, -6.46325707435607910156e-01) (45, -5.71058750152587890625e-01) (46, -1.96549758315086364746e-01) (47, -1.28440871834754943848e-01) (48, -7.44236171245574951172e-01) (0, 6.75836354494094848633e-02) (1, -1.97575017809867858887e-01) (2, -1.82952210307121276855e-01) (3, -8.94496366381645202637e-02) (4, -2.87074625492095947266e-01) (5, -1.57322645187377929688e-01) (6, -5.42370304465293884277e-02) (7, -1.59001424908638000488e-01) (8, 1.90332252532243728638e-02) (9, -5.28925240039825439453e-01) (10, -3.13624829053878784180e-01) (11, -3.09500426054000854492e-01) (12, -1.59708112478256225586e-01) (13, -1.36810109019279479980e-01) (14, 1.00396558642387390137e-01) (15, -5.00682629644870758057e-02) (16, -3.78030508756637573242e-01) (17, -7.26532638072967529297e-01) (18, -3.72982740402221679688e-01) (19, -5.28719902038574218750e-01) (20, -3.32934856414794921875e-01) (21, -3.71861636638641357422e-01) (22, -3.23788046836853027344e-01) (23, -1.63668751716613769531e-01) (24, -4.91015017032623291016e-01) (25, -6.16589725017547607422e-01) (26, -6.08208894729614257812e-01) (27, -6.90765082836151123047e-01) (28, -2.96489447355270385742e-01) (29, -5.19506633281707763672e-01) (30, -3.47048640251159667969e-01) (31, -3.49926501512527465820e-01) (32, -5.26383705437183380127e-02) (33, -7.61618435382843017578e-01) (34, -5.50138533115386962891e-01) (35, -8.39744150638580322266e-01) (36, -5.85311353206634521484e-01) (37, -3.89131993055343627930e-01) (38, -4.44628119468688964844e-01) (39, -1.71400591731071472168e-01) (40, 2.75739729404449462891e-02) (41, -3.71450692415237426758e-01) (42, -1.48411765694618225098e-01) (43, -9.93558466434478759766e-01) (44, -6.57377421855926513672e-01) (45, -3.87244522571563720703e-01) (46, -1.19952425360679626465e-01) (47, 1.14015722647309303284e-02) (48, -8.45883905887603759766e-01) (0, 4.14468441158533096313e-03) (1, -1.45161002874374389648e-02) (2, -9.23008918762207031250e-02) (3, -5.37323094904422760010e-02) (4, -1.14306676387786865234e+00) (5, -1.28970718383789062500e+00) (6, -1.19018685817718505859e+00) (7, -1.49756344035267829895e-02) (8, 7.92532444000244140625e-01) (9, -3.51410448551177978516e-01) (10, -2.59743213653564453125e-01) (11, -1.83086141943931579590e-01) (12, -1.57928502559661865234e+00) (13, -7.52005040645599365234e-01) (14, 5.08808232843875885010e-02) (15, 1.50559887290000915527e-01) (16, -5.77932417392730712891e-01) (17, -7.05889403820037841797e-01) (18, -7.66923069953918457031e-01) (19, -7.17393875122070312500e-01) (20, -1.08892631530761718750e+00) (21, -9.75301414728164672852e-02) (22, 3.79815697669982910156e-01) (23, -2.23753198981285095215e-01) (24, -2.42148935794830322266e-01) (25, -8.45995724201202392578e-01) (26, -1.25683760643005371094e+00) (27, -9.28305029869079589844e-01) (28, -4.27024662494659423828e-01) (29, -5.21076261997222900391e-01) (30, -6.26951932907104492188e-01) (31, 2.30302616953849792480e-01) (32, -9.96044635772705078125e-01) (33, -1.12601053714752197266e+00) (34, -1.06249773502349853516e+00) (35, -9.28307175636291503906e-01) (36, -2.83979147672653198242e-01) (37, -1.26574128866195678711e-01) (38, 8.60226213932037353516e-01) (39, -2.31942519545555114746e-01) (40, -4.12846237421035766602e-01) (41, -9.97943639755249023438e-01) (42, 3.32366734743118286133e-01) (43, -1.85239648818969726562e+00) (44, 2.29688100516796112061e-02) (45, 1.26836031675338745117e-01) (46, 7.59707152843475341797e-01) (47, 2.27593146264553070068e-02) (48, -6.26310706138610839844e-01) (0, 1.71909883618354797363e-01) (1, 7.06673115491867065430e-02) (2, 1.27253144979476928711e-01) (3, -2.66138643026351928711e-01) (4, 7.05014765262603759766e-01) (5, 2.35125184059143066406e-01) (6, -2.10602864623069763184e-01) (7, -2.25771114230155944824e-01) (8, -2.23724842071533203125e-01) (9, 4.07339960336685180664e-01) (10, 3.42817604541778564453e-01) (11, 2.46775403618812561035e-01) (12, 7.87875354290008544922e-02) (13, -4.59565192461013793945e-01) (14, -2.90114611387252807617e-01) (15, -3.86879026889801025391e-01) (16, 4.95305001735687255859e-01) (17, 4.44142550230026245117e-01) (18, 2.68325150012969970703e-01) (19, 3.40277493000030517578e-01) (20, 8.73902440071105957031e-02) (21, 4.06529381871223449707e-02) (22, 4.56941872835159301758e-01) (23, 1.57591998577117919922e+00) (24, 3.27671766281127929688e-01) (25, 4.25329267978668212891e-01) (26, 8.09057056903839111328e-01) (27, 2.91435122489929199219e-01) (28, 6.79480731487274169922e-02) (29, 4.04528558254241943359e-01) (30, 1.27217411994934082031e+00) (31, 1.24841034412384033203e+00) (32, 1.63800194859504699707e-02) (33, 8.39364111423492431641e-01) (34, 1.07352101802825927734e+00) (35, 7.77515053749084472656e-01) (36, 3.45494627952575683594e-01) (37, 6.57782256603240966797e-01) (38, 7.47420310974121093750e-01) (39, 2.17578232288360595703e-01) (40, -2.71449029445648193359e-01) (41, 3.88120085000991821289e-01) (42, -2.14177623391151428223e-01) (43, 1.43267321586608886719e+00) (44, 6.87400698661804199219e-01) (45, 7.30134963989257812500e-01) (46, 1.96228846907615661621e-01) (47, 5.36957792937755584717e-02) (48, -9.54151093959808349609e-01) (0, -1.94674357771873474121e-01) (1, -1.60603612661361694336e-01) (2, -2.18349099159240722656e-01) (3, -2.26381167769432067871e-01) (4, -4.42665547132492065430e-01) (5, -1.68794900178909301758e-01) (6, 5.57236671447753906250e-02) (7, 2.48937979340553283691e-01) (8, -1.90086781978607177734e-01) (9, -4.16278928518295288086e-01) (10, -1.39486134052276611328e-01) (11, -5.10718524456024169922e-02) (12, -3.93447667360305786133e-01) (13, -7.38344863057136535645e-02) (14, 6.81055560708045959473e-02) (15, 1.97417169809341430664e-01) (16, -3.77642691135406494141e-01) (17, -2.98132091760635375977e-01) (18, -8.99719893932342529297e-02) (19, -2.82336860895156860352e-01) (20, -3.29212576150894165039e-01) (21, -2.86820203065872192383e-01) (22, -2.63061553239822387695e-01) (23, -4.20737266540527343750e-01) (24, -2.79211044311523437500e-01) (25, -2.71639913320541381836e-01) (26, -5.13795316219329833984e-01) (27, -3.67650508880615234375e-01) (28, -4.41239655017852783203e-01) (29, -3.75314980745315551758e-01) (30, -5.21814644336700439453e-01) (31, -2.42481276392936706543e-01) (32, 1.11343972384929656982e-01) (33, -3.83314579725265502930e-01) (34, -4.39767330884933471680e-01) (35, -5.10355174541473388672e-01) (36, -3.93276453018188476562e-01) (37, -4.04614031314849853516e-01) (38, -1.72044783830642700195e-01) (39, -1.16949312388896942139e-01) (40, 2.45293825864791870117e-01) (41, -1.72170832753181457520e-01) (42, 2.69723199307918548584e-02) (43, -9.14185285568237304688e-01) (44, -4.94401901960372924805e-01) (45, -3.49701792001724243164e-01) (46, -5.48815578222274780273e-02) (47, -6.49500265717506408691e-02) (48, -1.07616794109344482422e+00) (0, -1.33378058671951293945e-01) (1, -7.51450285315513610840e-02) (2, -3.06032132357358932495e-02) (3, -2.66679465770721435547e-01) (4, -8.73360969126224517822e-03) (5, 3.71886231005191802979e-02) (6, -1.05929505079984664917e-02) (7, 1.43741935491561889648e-01) (8, -3.43848258256912231445e-01) (9, -1.17508515715599060059e-01) (10, -6.66781794279813766479e-04) (11, -1.33310928940773010254e-01) (12, -2.67834454774856567383e-01) (13, -2.26225867867469787598e-01) (14, -1.63117557764053344727e-01) (15, 9.62858125567436218262e-02) (16, -1.33400008082389831543e-01) (17, -1.07181824743747711182e-01) (18, -1.00797582417726516724e-02) (19, -1.55323281884193420410e-01) (20, 7.30513557791709899902e-02) (21, -2.07413434982299804688e-02) (22, 7.32031539082527160645e-02) (23, 4.64310981333255767822e-02) (24, -6.07320927083492279053e-02) (25, 3.62696573138236999512e-02) (26, -7.84080401062965393066e-02) (27, -1.08246067538857460022e-02) (28, -1.96576669812202453613e-01) (29, 6.73476234078407287598e-02) (30, 2.67222523689270019531e-03) (31, 5.24029619991779327393e-02) (32, 5.72253242135047912598e-02) (33, -6.29378780722618103027e-02) (34, -5.85960857570171356201e-02) (35, 9.50222951360046863556e-04) (36, -1.00440323352813720703e-01) (37, -1.35669484734535217285e-01) (38, 5.78057616949081420898e-02) (39, -2.24749878048896789551e-01) (40, 8.48188027739524841309e-02) (41, 8.87996628880500793457e-02) (42, 2.46128458529710769653e-02) (43, -1.65066167712211608887e-01) (44, -1.10571615397930145264e-01) (45, -7.15997144579887390137e-02) (46, -1.26947104930877685547e-01) (47, -3.05147141218185424805e-01) (48, -1.62017214298248291016e+00) (0, 1.19525589048862457275e-01) (1, -8.72541666030883789062e-02) (2, -6.95343688130378723145e-02) (3, -6.73086196184158325195e-02) (4, -1.32271140813827514648e-01) (5, -2.86235567182302474976e-02) (6, -2.23905712366104125977e-01) (7, -7.90206268429756164551e-02) (8, -8.21765884757041931152e-02) (9, -2.90939003229141235352e-01) (10, -1.68824687600135803223e-01) (11, -1.59861996769905090332e-01) (12, -6.18228912353515625000e-02) (13, 1.24449031427502632141e-02) (14, -6.01093210279941558838e-02) (15, -9.23254787921905517578e-02) (16, -1.53560176491737365723e-01) (17, -3.45437467098236083984e-01) (18, -2.70243316888809204102e-01) (19, -3.10995697975158691406e-01) (20, -3.04413378238677978516e-01) (21, -2.33973264694213867188e-01) (22, -1.33550375699996948242e-01) (23, 4.47565922513604164124e-03) (24, -1.03442594408988952637e-01) (25, -1.51743829250335693359e-01) (26, -2.40493819117546081543e-01) (27, -3.60639780759811401367e-01) (28, -1.91364288330078125000e-01) (29, -2.04137533903121948242e-01) (30, -1.53347149491310119629e-01) (31, -1.66152775287628173828e-01) (32, -1.88226833939552307129e-01) (33, -2.23543226718902587891e-01) (34, -1.31002128124237060547e-01) (35, -4.66670095920562744141e-01) (36, -3.30940723419189453125e-01) (37, -2.66717940568923950195e-01) (38, -1.46024733781814575195e-01) (39, 5.08195608854293823242e-02) (40, -1.32731646299362182617e-01) (41, -1.86932399868965148926e-01) (42, -6.76215663552284240723e-02) (43, -3.01154524087905883789e-01) (44, -3.80353540182113647461e-01) (45, -1.41361460089683532715e-01) (46, -8.76838192343711853027e-02) (47, -3.74413691461086273193e-02) (48, -1.48403239250183105469e+00) (0, -1.45549178123474121094e-01) (1, -7.11128860712051391602e-02) (2, -2.44065839797258377075e-02) (3, -8.50837603211402893066e-02) (4, -1.18541181087493896484e-01) (5, -1.38895839452743530273e-01) (6, 8.21147765964269638062e-03) (7, 1.77381008863449096680e-01) (8, -3.89437466859817504883e-01) (9, -2.55172491073608398438e-01) (10, 2.24745124578475952148e-01) (11, -1.38199271168559789658e-03) (12, -3.22416484355926513672e-01) (13, 6.98888152837753295898e-02) (14, -9.20861884951591491699e-02) (15, 4.07434217631816864014e-02) (16, -3.20642203092575073242e-01) (17, -6.14511780440807342529e-02) (18, 2.98294365406036376953e-01) (19, -1.29387125372886657715e-01) (20, 1.00660778582096099854e-01) (21, 2.91108310222625732422e-01) (22, -1.07548562809824943542e-02) (23, -2.19335705041885375977e-01) (24, -1.52849659323692321777e-01) (25, -7.16466084122657775879e-02) (26, 3.98650653660297393799e-02) (27, -2.03057140111923217773e-01) (28, -7.14347213506698608398e-02) (29, 2.16891169548034667969e-02) (30, -1.88032671809196472168e-01) (31, -6.80310577154159545898e-02) (32, 1.94908112287521362305e-01) (33, 3.96962538361549377441e-02) (34, -1.89711265265941619873e-02) (35, 5.52673153579235076904e-02) (36, -3.00204865634441375732e-02) (37, -1.06832534074783325195e-01) (38, 3.93760539591312408447e-02) (39, -2.52431958913803100586e-01) (40, 1.61878228187561035156e-01) (41, 6.07391484081745147705e-02) (42, 1.28416806459426879883e-01) (43, -2.57687091827392578125e-01) (44, -3.16851764917373657227e-01) (45, -3.26690405607223510742e-01) (46, -3.37482392787933349609e-01) (47, -2.79221117496490478516e-01) (48, -1.66816794872283935547e+00) (0, -2.01015174388885498047e-01) (1, 1.71786807477474212646e-02) (2, -5.05364872515201568604e-02) (3, -7.33924508094787597656e-02) (4, 6.53929561376571655273e-02) (5, 9.03525669127702713013e-03) (6, -1.36621117591857910156e-01) (7, -1.00601121783256530762e-01) (8, -1.87870338559150695801e-01) (9, 2.26381272077560424805e-01) (10, 1.46401867270469665527e-01) (11, 3.10138892382383346558e-02) (12, -1.90507978200912475586e-01) (13, -3.58740389347076416016e-01) (14, -2.23721146583557128906e-01) (15, -2.07405418157577514648e-01) (16, 2.07436308264732360840e-01) (17, 1.46847978234291076660e-01) (18, 4.81909625232219696045e-02) (19, 3.82012352347373962402e-02) (20, 9.37675163149833679199e-02) (21, 1.67613238096237182617e-01) (22, 9.89172011613845825195e-02) (23, 2.29063868522644042969e-01) (24, 4.33262772858142852783e-02) (25, 1.26553967595100402832e-01) (26, 1.99890017509460449219e-01) (27, -1.09025657176971435547e-01) (28, -4.13243807852268218994e-02) (29, 1.34902089834213256836e-01) (30, 1.44081473350524902344e-01) (31, 3.89281034469604492188e-01) (32, -2.31778677552938461304e-02) (33, 2.17220082879066467285e-01) (34, 3.26545238494873046875e-01) (35, 1.94664791226387023926e-01) (36, 4.38430942595005035400e-02) (37, 8.16435962915420532227e-02) (38, 1.43064185976982116699e-01) (39, -2.11639881134033203125e-01) (40, -1.23050749301910400391e-01) (41, 2.09726601839065551758e-01) (42, -1.15811817348003387451e-01) (43, 3.03631484508514404297e-01) (44, 6.28299685195088386536e-03) (45, -6.99158087372779846191e-02) (46, -2.10737869143486022949e-01) (47, -9.88257303833961486816e-02) (48, -1.62113201618194580078e+00) (0, 4.15720671415328979492e-01) (1, 5.03628313541412353516e-01) (2, 7.76441812515258789062e-01) (3, 1.04959094524383544922e+00) (4, -1.71868383884429931641e-01) (5, -1.30367636680603027344e-01) (6, -5.95310986042022705078e-01) (7, 1.66877254843711853027e-01) (8, 8.23676064610481262207e-02) (9, 5.84768712520599365234e-01) (10, 1.32054552435874938965e-01) (11, -1.46505415439605712891e-01) (12, 1.10875415802001953125e+00) (13, 5.77232658863067626953e-01) (14, -1.27587825059890747070e-01) (15, -2.11275741457939147949e-01) (16, -7.73062705993652343750e-02) (17, -3.28557312488555908203e-01) (18, 6.70727193355560302734e-02) (19, 4.85411554574966430664e-01) (20, -1.88224509358406066895e-01) (21, 6.96529030799865722656e-01) (22, 6.53381764888763427734e-01) (23, 7.65334963798522949219e-01) (24, -1.04309201240539550781e+00) (25, -4.14948821067810058594e-01) (26, -4.22489076852798461914e-01) (27, -3.39626491069793701172e-01) (28, 6.70776247978210449219e-01) (29, 3.39653819799423217773e-01) (30, 6.14385068416595458984e-01) (31, 6.14450633525848388672e-01) (32, -2.47696638107299804688e-01) (33, -8.32352757453918457031e-01) (34, -5.62969923019409179688e-01) (35, -5.32912135124206542969e-01) (36, -1.05330646038055419922e+00) (37, 5.93854077160358428955e-02) (38, 8.19745481014251708984e-01) (39, 5.50343573093414306641e-01) (40, -2.79464900493621826172e-01) (41, -1.79938197135925292969e-01) (42, -9.24237906932830810547e-01) (43, -7.00543522834777832031e-01) (44, -5.37020266056060791016e-01) (45, -8.92277240753173828125e-01) (46, 1.29931285977363586426e-01) (47, -8.42490568757057189941e-02) (48, -2.93509435653686523438e+00) (0, -5.73013015091419219971e-02) (1, -1.73916175961494445801e-01) (2, -1.11405864357948303223e-01) (3, -1.23561464250087738037e-01) (4, -2.00223386287689208984e-01) (5, -2.00504794716835021973e-01) (6, -1.77416242659091949463e-02) (7, -1.15914475172758102417e-02) (8, -3.63511405885219573975e-02) (9, -3.11562597751617431641e-01) (10, -6.23439364135265350342e-02) (11, -8.15686956048011779785e-02) (12, -3.43114972114562988281e-01) (13, -9.59227904677391052246e-02) (14, -2.62386575341224670410e-02) (15, 7.89283588528633117676e-02) (16, -3.10870528221130371094e-01) (17, -1.57243415713310241699e-01) (18, -1.67617663741111755371e-01) (19, -1.24880723655223846436e-01) (20, -1.88378304243087768555e-01) (21, -2.36237853765487670898e-01) (22, -1.49551123380661010742e-01) (23, -2.35592663288116455078e-01) (24, -1.71286359429359436035e-01) (25, -3.78287546336650848389e-02) (26, -2.06549942493438720703e-01) (27, -1.66829869151115417480e-01) (28, -2.40880489349365234375e-01) (29, -1.48652821779251098633e-01) (30, -2.43684038519859313965e-01) (31, -1.23593330383300781250e-01) (32, 1.41816869378089904785e-01) (33, -2.02418550848960876465e-01) (34, -2.81262665987014770508e-01) (35, -3.16045284271240234375e-01) (36, -2.54442811012268066406e-01) (37, -3.08554857969284057617e-01) (38, -5.10734021663665771484e-02) (39, -1.27185642719268798828e-01) (40, 2.93760616332292556763e-02) (41, -6.59542977809906005859e-02) (42, -3.32612544298171997070e-02) (43, -5.42304754257202148438e-01) (44, -4.55906897783279418945e-01) (45, -2.85806536674499511719e-01) (46, -2.09941208362579345703e-01) (47, -2.17691376805305480957e-01) (48, -1.39910864830017089844e+00) (0, -9.09306108951568603516e-02) (1, -2.11830630898475646973e-01) (2, -2.71947354078292846680e-01) (3, -1.32375061511993408203e-01) (4, -3.12586128711700439453e-01) (5, -5.01256510615348815918e-02) (6, -1.58129528164863586426e-01) (7, -1.06186211109161376953e-01) (8, 1.40734296292066574097e-02) (9, -2.02044531702995300293e-01) (10, -2.71463721990585327148e-01) (11, -2.72425383329391479492e-01) (12, -1.70090407133102416992e-01) (13, -9.68884378671646118164e-02) (14, -7.49981217086315155029e-03) (15, 1.18631422519683837891e-01) (16, -1.72445893287658691406e-01) (17, -2.18087419867515563965e-01) (18, -2.12210014462471008301e-01) (19, -3.52256000041961669922e-01) (20, -2.72521525621414184570e-01) (21, -3.35505783557891845703e-01) (22, -2.05550864338874816895e-01) (23, -2.88519322872161865234e-01) (24, -1.62467688322067260742e-01) (25, -3.40162009000778198242e-01) (26, -2.96951591968536376953e-01) (27, -3.60434055328369140625e-01) (28, -3.72299998998641967773e-01) (29, -3.08159500360488891602e-01) (30, -3.60675096511840820312e-01) (31, -4.38231855630874633789e-01) (32, -4.47745993733406066895e-03) (33, -3.69179069995880126953e-01) (34, -2.92042076587677001953e-01) (35, -5.59856176376342773438e-01) (36, -4.50352281332015991211e-01) (37, -2.40512832999229431152e-01) (38, -2.79403924942016601562e-01) (39, -9.32229496538639068604e-03) (40, 2.37341616302728652954e-02) (41, -2.75167942047119140625e-01) (42, -1.92610457539558410645e-01) (43, -5.85860908031463623047e-01) (44, -4.66440171003341674805e-01) (45, -2.86458849906921386719e-01) (46, -1.02955214679241180420e-01) (47, 2.46349666267633438110e-02) (48, -1.21896600723266601562e+00) (0, -1.75204738974571228027e-01) (1, -1.39651030302047729492e-01) (2, -7.03791826963424682617e-02) (3, -1.21534250676631927490e-01) (4, -2.27375626564025878906e-02) (5, -8.87871533632278442383e-02) (6, -1.60418599843978881836e-01) (7, -4.90313172340393066406e-02) (8, -3.40690344572067260742e-01) (9, -1.78819268941879272461e-01) (10, -7.04176127910614013672e-02) (11, 7.91361741721630096436e-03) (12, -3.05552124977111816406e-01) (13, -1.12851262092590332031e-01) (14, -2.06268087029457092285e-01) (15, 4.13535460829734802246e-02) (16, -1.53081446886062622070e-01) (17, -1.58638969063758850098e-01) (18, 2.93453276157379150391e-01) (19, 1.76093712449073791504e-01) (20, -1.56421884894371032715e-01) (21, 9.72149223089218139648e-02) (22, 2.52094268798828125000e-01) (23, 1.87466487288475036621e-01) (24, 2.91834492236375808716e-02) (25, -2.04353451728820800781e-01) (26, 1.11322097480297088623e-01) (27, -9.02083292603492736816e-02) (28, -2.25403383374214172363e-01) (29, 2.01086997985839843750e-01) (30, 4.73728477954864501953e-01) (31, 3.08128178119659423828e-01) (32, 2.49097011983394622803e-02) (33, 1.14082954823970794678e-01) (34, 2.29057818651199340820e-01) (35, 2.94528752565383911133e-01) (36, 3.26384268701076507568e-02) (37, 2.30612099170684814453e-01) (38, 3.90979528427124023438e-01) (39, -4.74654436111450195312e-02) (40, -8.00207629799842834473e-02) (41, 8.76063555479049682617e-02) (42, -2.89535312913358211517e-03) (43, 2.46339023113250732422e-01) (44, 1.65499765425920486450e-02) (45, 5.36640062928199768066e-02) (46, -1.17466926574707031250e-01) (47, -7.74762406945228576660e-02) (48, -1.68353068828582763672e+00) (0, -6.68520405888557434082e-02) (1, 5.70713542401790618896e-02) (2, 4.79228869080543518066e-02) (3, -2.27262869477272033691e-01) (4, -3.61846834421157836914e-02) (5, 3.99353764951229095459e-02) (6, -2.63068020343780517578e-01) (7, -1.10021427273750305176e-01) (8, -3.90230864286422729492e-02) (9, 5.50370886921882629395e-02) (10, -2.34028268605470657349e-02) (11, -1.30432602018117904663e-02) (12, -2.33568593859672546387e-01) (13, -2.04390615224838256836e-01) (14, -2.15940997004508972168e-01) (15, -1.29026055335998535156e-01) (16, 1.01891219615936279297e-01) (17, 1.63895249366760253906e-01) (18, -1.06625460088253021240e-01) (19, -7.80141074210405349731e-03) (20, -9.38827991485595703125e-02) (21, 8.56429338455200195312e-03) (22, 1.27447918057441711426e-01) (23, 2.19625934958457946777e-01) (24, 1.85284152626991271973e-01) (25, 3.15445512533187866211e-02) (26, 1.72505080699920654297e-01) (27, -1.15691281855106353760e-01) (28, -7.75867979973554611206e-03) (29, 4.06103171408176422119e-02) (30, 1.56134948134422302246e-01) (31, 1.20093084871768951416e-01) (32, -4.66439090669155120850e-02) (33, 1.51717141270637512207e-01) (34, 1.06727533042430877686e-01) (35, -1.59846916794776916504e-02) (36, -1.49567022919654846191e-01) (37, -3.84082272648811340332e-03) (38, 5.34792616963386535645e-02) (39, -1.04543277993798255920e-02) (40, -1.21708936989307403564e-01) (41, -9.77791752666234970093e-03) (42, -1.47293359041213989258e-01) (43, 1.64930805563926696777e-01) (44, -8.92947986721992492676e-02) (45, 1.56246377155184745789e-02) (46, 1.59462844021618366241e-03) (47, -4.93753962218761444092e-02) (48, -1.64378976821899414062e+00) (0, -1.18081480264663696289e-01) (1, -1.64597615599632263184e-01) (2, -5.27747832238674163818e-02) (3, -6.50049448013305664062e-02) (4, -9.31470096111297607422e-02) (5, -4.15465310215950012207e-02) (6, -1.25909641385078430176e-01) (7, -8.15700739622116088867e-02) (8, -6.01845001801848411560e-03) (9, -1.32438227534294128418e-01) (10, -8.01869332790374755859e-02) (11, -1.23539023101329803467e-01) (12, -2.59961903095245361328e-01) (13, -9.28924754261970520020e-02) (14, -6.38799443840980529785e-02) (15, -6.93418532609939575195e-02) (16, 1.86061989516019821167e-02) (17, -2.13461503386497497559e-01) (18, -1.09221860766410827637e-01) (19, -1.80900543928146362305e-01) (20, -2.10232108831405639648e-01) (21, -2.53561884164810180664e-01) (22, -1.88704565167427062988e-01) (23, 1.09060609247535467148e-03) (24, -1.00102290511131286621e-01) (25, -1.76509067416191101074e-01) (26, -2.26737543940544128418e-01) (27, -2.50688284635543823242e-01) (28, -1.33363977074623107910e-01) (29, -1.10129311680793762207e-01) (30, -4.56492863595485687256e-02) (31, 4.09898646175861358643e-02) (32, -2.63866093009710311890e-02) (33, -2.25684419274330139160e-01) (34, -7.37942531704902648926e-02) (35, -1.88011497259140014648e-01) (36, -1.36419475078582763672e-01) (37, -1.36704057455062866211e-01) (38, -1.48245573043823242188e-01) (39, -7.60561749339103698730e-02) (40, 9.98329091817140579224e-03) (41, -7.14604482054710388184e-02) (42, -1.33627569302916526794e-02) (43, -1.45546466112136840820e-01) (44, -2.88001567125320434570e-01) (45, -1.19082331657409667969e-01) (46, -6.86291754245758056641e-02) (47, -1.24601870775222778320e-01) (48, -1.54266321659088134766e+00) (0, 4.04441170394420623779e-02) (1, -1.53728917241096496582e-01) (2, -1.84644922614097595215e-01) (3, -2.69062638282775878906e-01) (4, -3.58659863471984863281e-01) (5, -3.59304733574390411377e-02) (6, -8.06042030453681945801e-02) (7, -2.80262883752584457397e-02) (8, 4.18360345065593719482e-02) (9, -2.70596593618392944336e-01) (10, -2.33949899673461914062e-01) (11, -2.42279931902885437012e-01) (12, -3.34422260522842407227e-01) (13, -5.74959740042686462402e-02) (14, -7.85219073295593261719e-02) (15, -8.21834709495306015015e-03) (16, -1.83292612433433532715e-01) (17, -2.31803610920906066895e-01) (18, -3.16934376955032348633e-01) (19, -3.81536960601806640625e-01) (20, -5.06592690944671630859e-01) (21, -3.61829042434692382812e-01) (22, -3.02261114120483398438e-01) (23, -3.67771148681640625000e-01) (24, -5.53977265954017639160e-02) (25, -3.03823024034500122070e-01) (26, -2.86834061145782470703e-01) (27, -2.90955126285552978516e-01) (28, -2.96740770339965820312e-01) (29, -3.66947084665298461914e-01) (30, -3.88124018907546997070e-01) (31, -4.54927325248718261719e-01) (32, -8.85478109121322631836e-02) (33, -3.53087753057479858398e-01) (34, -2.87703067064285278320e-01) (35, -5.15316009521484375000e-01) (36, -5.49644172191619873047e-01) (37, -3.62053960561752319336e-01) (38, -4.11002784967422485352e-01) (39, -1.85629040002822875977e-01) (40, -6.69379755854606628418e-02) (41, -2.56345182657241821289e-01) (42, -9.40917134284973144531e-02) (43, -6.31861746311187744141e-01) (44, -6.17955029010772705078e-01) (45, -1.95748671889305114746e-01) (46, -6.73014074563980102539e-02) (47, -5.04498220980167388916e-02) (48, -1.12317252159118652344e+00) (0, -1.09496071934700012207e-01) (1, -4.63063828647136688232e-02) (2, -1.52613669633865356445e-01) (3, -7.81009197235107421875e-02) (4, -4.61948782205581665039e-01) (5, -1.49861037731170654297e-01) (6, -1.70524045825004577637e-01) (7, -1.54423907399177551270e-01) (8, 7.70184248685836791992e-02) (9, -2.83182650804519653320e-01) (10, -2.73840069770812988281e-01) (11, -2.26836323738098144531e-01) (12, -2.29975655674934387207e-01) (13, -1.74611672759056091309e-01) (14, -7.84376934170722961426e-02) (15, -9.03593450784683227539e-02) (16, -3.98301854729652404785e-02) (17, -2.85943537950515747070e-01) (18, -2.72504538297653198242e-01) (19, -3.73324781656265258789e-01) (20, -3.60551148653030395508e-01) (21, -3.56621682643890380859e-01) (22, -2.24025309085845947266e-01) (23, -4.87218499183654785156e-01) (24, 7.58470669388771057129e-02) (25, -1.60304278135299682617e-01) (26, -3.05221289396286010742e-01) (27, -3.58018666505813598633e-01) (28, -2.86653310060501098633e-01) (29, -3.30584257841110229492e-01) (30, -4.35866236686706542969e-01) (31, -5.07984519004821777344e-01) (32, -9.39297154545783996582e-02) (33, -1.99254333972930908203e-01) (34, -3.07285994291305541992e-01) (35, -5.11926352977752685547e-01) (36, -5.65658509731292724609e-01) (37, -3.13386946916580200195e-01) (38, -2.91534513235092163086e-01) (39, -3.70137281715869903564e-02) (40, -7.12003484368324279785e-02) (41, -3.33084017038345336914e-01) (42, -1.70312613248825073242e-01) (43, -5.84340989589691162109e-01) (44, -5.35993397235870361328e-01) (45, -2.40227103233337402344e-01) (46, -1.36378705501556396484e-01) (47, -7.65651240944862365723e-02) (48, -1.15442621707916259766e+00) (0, -2.84158214926719665527e-02) (1, -9.23349335789680480957e-02) (2, -1.13319337368011474609e-01) (3, -6.34059011936187744141e-02) (4, -1.10620021820068359375e-01) (5, -9.30358842015266418457e-02) (6, -7.39200860261917114258e-02) (7, -2.02928353101015090942e-02) (8, -2.17744708061218261719e-02) (9, -1.93820178508758544922e-01) (10, -1.28297999501228332520e-01) (11, -2.11856544017791748047e-01) (12, -2.05138593912124633789e-01) (13, -3.70060428977012634277e-02) (14, -5.22680692374706268311e-02) (15, -1.04216568171977996826e-01) (16, -1.39642626047134399414e-01) (17, -1.97960495948791503906e-01) (18, -1.30091264843940734863e-01) (19, -1.21958859264850616455e-01) (20, -2.38805145025253295898e-01) (21, -2.55119293928146362305e-01) (22, -1.52009561657905578613e-01) (23, -1.65216639637947082520e-01) (24, -9.88401919603347778320e-02) (25, -6.04114234447479248047e-02) (26, -1.37679442763328552246e-01) (27, -2.82366424798965454102e-01) (28, -2.83075183629989624023e-01) (29, -1.26265421509742736816e-01) (30, -8.84090438485145568848e-02) (31, -1.14489160478115081787e-01) (32, -9.56362932920455932617e-02) (33, -1.95671081542968750000e-01) (34, -1.50593966245651245117e-01) (35, -3.53788763284683227539e-01) (36, -1.86686009168624877930e-01) (37, -2.20983713865280151367e-01) (38, -8.04504603147506713867e-02) (39, -1.40555515885353088379e-01) (40, -4.07349653542041778564e-02) (41, -1.64172798395156860352e-01) (42, -1.00955516099929809570e-01) (43, -2.56378561258316040039e-01) (44, -3.28312933444976806641e-01) (45, -9.25174504518508911133e-02) (46, -1.95912644267082214355e-01) (47, -1.03878267109394073486e-01) (48, -1.48675525188446044922e+00) (0, -8.06924363132566213608e-04) (1, -1.78237363696098327637e-01) (2, -1.67475610971450805664e-01) (3, -6.73253536224365234375e-02) (4, -2.40737840533256530762e-01) (5, -4.04536128044128417969e-02) (6, -1.76790207624435424805e-01) (7, -1.80026426911354064941e-01) (8, -4.81016151607036590576e-02) (9, -1.68931618332862854004e-01) (10, -1.75487041473388671875e-01) (11, -2.29879677295684814453e-01) (12, -6.34496286511421203613e-02) (13, -1.88905954360961914062e-01) (14, -5.80982975661754608154e-02) (15, -1.44992545247077941895e-01) (16, -1.42858049366623163223e-03) (17, -1.53987228870391845703e-01) (18, -4.34792228043079376221e-02) (19, -1.73167780041694641113e-01) (20, -3.30795139074325561523e-01) (21, -2.18827813863754272461e-01) (22, -2.02516183257102966309e-01) (23, -1.25395417213439941406e-01) (24, -1.02029275149106979370e-03) (25, -7.49771595001220703125e-02) (26, -1.36420696973800659180e-01) (27, -2.33545318245887756348e-01) (28, -2.61076223105192184448e-02) (29, -1.59404024481773376465e-01) (30, -7.34687149524688720703e-02) (31, -1.96540132164955139160e-01) (32, -9.76143330335617065430e-02) (33, -1.81974649429321289062e-01) (34, -1.69896766543388366699e-01) (35, -3.30012261867523193359e-01) (36, -3.67846250534057617188e-01) (37, -1.42839893698692321777e-01) (38, -1.86841174960136413574e-01) (39, -7.54927024245262145996e-02) (40, -1.33531689643859863281e-01) (41, -1.44433423876762390137e-01) (42, -1.15537904202938079834e-01) (43, -2.13858753442764282227e-01) (44, -2.19102799892425537109e-01) (45, -5.56152537465095520020e-02) (46, -2.57032532244920730591e-02) (47, -7.82834962010383605957e-02) (48, -1.51007425785064697266e+00) (0, -7.62533023953437805176e-02) (1, -5.45450598001480102539e-02) (2, -2.25913509726524353027e-01) (3, -1.20803393423557281494e-01) (4, -4.04606074094772338867e-01) (5, -2.59367264807224273682e-02) (6, -2.02413469552993774414e-01) (7, 4.48040384799242019653e-03) (8, -8.17519575357437133789e-02) (9, -1.21632285416126251221e-01) (10, -1.02855607867240905762e-01) (11, -2.21453234553337097168e-01) (12, -5.80858170986175537109e-01) (13, -2.61131942272186279297e-01) (14, -2.56052464246749877930e-01) (15, 1.07463479042053222656e-01) (16, -8.08916687965393066406e-02) (17, -1.00991606712341308594e-01) (18, -1.32851630449295043945e-01) (19, -3.89562308788299560547e-01) (20, -4.69640523195266723633e-01) (21, -4.82716292142868041992e-01) (22, -3.34463506937026977539e-01) (23, -4.77242350578308105469e-01) (24, 2.35758155584335327148e-01) (25, -1.67784765362739562988e-01) (26, -2.19388455152511596680e-01) (27, -4.47502940893173217773e-01) (28, -4.84214007854461669922e-01) (29, -4.77230131626129150391e-01) (30, -5.05662262439727783203e-01) (31, -7.46695399284362792969e-01) (32, 2.81374175101518630981e-02) (33, -1.93001896142959594727e-01) (34, -9.15112346410751342773e-02) (35, -3.57054531574249267578e-01) (36, -6.82005882263183593750e-01) (37, -4.28116559982299804688e-01) (38, -3.71070504188537597656e-01) (39, -7.46585354208946228027e-02) (40, -2.69505009055137634277e-02) (41, -3.06531906127929687500e-01) (42, -2.33348309993743896484e-01) (43, -3.64210814237594604492e-01) (44, -6.26941502094268798828e-01) (45, -2.00940757989883422852e-01) (46, -6.96171671152114868164e-02) (47, -1.99441775679588317871e-01) (48, -1.29742622375488281250e+00) (0, -2.25238829851150512695e-01) (1, -1.07843391597270965576e-01) (2, 5.44363074004650115967e-02) (3, -1.35076165199279785156e-01) (4, 7.14262202382087707520e-02) (5, -9.28552299737930297852e-02) (6, -1.29424229264259338379e-01) (7, 6.00803866982460021973e-02) (8, -4.57273185253143310547e-01) (9, -8.57859700918197631836e-02) (10, 1.23987570405006408691e-02) (11, 1.22427269816398620605e-02) (12, -2.59706497192382812500e-01) (13, -2.39498168230056762695e-01) (14, -1.87586769461631774902e-01) (15, -4.91926856338977813721e-02) (16, -2.15303570032119750977e-01) (17, -1.45278060808777809143e-02) (18, 2.14565187692642211914e-01) (19, 9.93419066071510314941e-02) (20, -9.55496132373809814453e-02) (21, 8.03282763808965682983e-03) (22, 3.57878267765045166016e-01) (23, 3.62867861986160278320e-01) (24, -1.74288630485534667969e-01) (25, 1.38752600178122520447e-02) (26, 2.29821354150772094727e-01) (27, -4.71221879124641418457e-02) (28, -3.43681931495666503906e-01) (29, 3.75209599733352661133e-01) (30, 6.38310253620147705078e-01) (31, 3.22016656398773193359e-01) (32, -2.38330624997615814209e-02) (33, 2.78380334377288818359e-01) (34, 4.46913003921508789062e-01) (35, 2.50980615615844726562e-01) (36, -6.55855704098939895630e-03) (37, 4.31015253067016601562e-01) (38, 5.27039468288421630859e-01) (39, -7.59076029062271118164e-02) (40, 7.54916667938232421875e-02) (41, 2.54381030797958374023e-01) (42, 1.10608674585819244385e-01) (43, 4.12833362817764282227e-01) (44, 5.31606189906597137451e-02) (45, 2.29269251227378845215e-01) (46, -1.94631695747375488281e-01) (47, -2.11304008960723876953e-01) (48, -1.79175031185150146484e+00) (0, -3.38565558195114135742e-01) (1, -6.21720135211944580078e-01) (2, -5.78909099102020263672e-01) (3, -2.24732697010040283203e-01) (4, 7.45615512132644653320e-02) (5, 4.24552820622920989990e-02) (6, -1.59661367535591125488e-01) (7, 1.83884948492050170898e-01) (8, -1.00249552726745605469e+00) (9, -8.82486641407012939453e-01) (10, 9.40787047147750854492e-02) (11, -1.76248654723167419434e-01) (12, 2.91755437850952148438e-01) (13, 3.03153485059738159180e-01) (14, -2.34415903687477111816e-01) (15, -5.18529236316680908203e-01) (16, -4.89829450845718383789e-01) (17, -3.12845200300216674805e-01) (18, 7.79301166534423828125e-01) (19, 6.88740789890289306641e-01) (20, 6.35036051273345947266e-01) (21, 8.09360444545745849609e-01) (22, 6.04459643363952636719e-01) (23, 5.34774959087371826172e-01) (24, -6.37238800525665283203e-01) (25, 1.49315655231475830078e-01) (26, 6.33860886096954345703e-01) (27, 1.80925250053405761719e-01) (28, 3.85732233524322509766e-01) (29, 5.68254053592681884766e-01) (30, 7.10467934608459472656e-01) (31, 4.00483310222625732422e-01) (32, 4.87219661474227905273e-01) (33, 4.23860698938369750977e-01) (34, 6.97659730911254882812e-01) (35, 1.48154461383819580078e+00) (36, 5.24018645286560058594e-01) (37, 5.91875314712524414062e-01) (38, 3.78859937191009521484e-01) (39, -1.42928570508956909180e-01) (40, 2.48482167720794677734e-01) (41, 5.76579391956329345703e-01) (42, 7.52040684223175048828e-01) (43, 1.02331006526947021484e+00) (44, -4.96152080595493316650e-02) (45, -1.66086778044700622559e-01) (46, -5.66538453102111816406e-01) (47, -1.38951376080513000488e-01) (48, -2.01167821884155273438e+00) (0, 4.93012405931949615479e-02) (1, 2.82458290457725524902e-02) (2, -1.02669708430767059326e-01) (3, -1.24166317284107208252e-01) (4, -1.55366376042366027832e-01) (5, 1.75387542694807052612e-02) (6, -1.20949089527130126953e-01) (7, -2.29883521795272827148e-01) (8, 3.11382692307233810425e-02) (9, -3.38655561208724975586e-02) (10, -1.36539423838257789612e-02) (11, -1.87751427292823791504e-01) (12, -1.76435738801956176758e-01) (13, -2.14935123920440673828e-01) (14, -2.69488189369440078735e-02) (15, -1.91718846559524536133e-01) (16, 6.94841817021369934082e-02) (17, -2.86515541374683380127e-02) (18, -5.46394139528274536133e-02) (19, -1.00955016911029815674e-01) (20, -2.53551632165908813477e-01) (21, -1.22108601033687591553e-01) (22, -1.09128415584564208984e-01) (23, -1.13273061811923980713e-01) (24, 2.77467165142297744751e-02) (25, -1.50564759969711303711e-01) (26, -5.11645115911960601807e-02) (27, -1.87638252973556518555e-01) (28, -2.04351786524057388306e-02) (29, -1.53827130794525146484e-01) (30, 6.54161348938941955566e-03) (31, -9.71397683024406433105e-02) (32, -8.93623754382133483887e-02) (33, -1.38672977685928344727e-01) (34, -1.10371209681034088135e-01) (35, -2.18702375888824462891e-01) (36, -3.43220502138137817383e-01) (37, -2.21831351518630981445e-02) (38, -1.02848708629608154297e-01) (39, -7.64307603240013122559e-02) (40, -1.42344132065773010254e-01) (41, -1.63056522607803344727e-01) (42, -1.08176112174987792969e-01) (43, -2.40141555666923522949e-01) (44, -1.92878022789955139160e-01) (45, -1.16964884102344512939e-01) (46, -1.23237006366252899170e-01) (47, -9.08226370811462402344e-02) (48, -1.57275521755218505859e+00) (0, 4.97329756617546081543e-02) (1, -1.43891945481300354004e-01) (2, -3.18196624517440795898e-01) (3, -1.78111687302589416504e-01) (4, -4.41179156303405761719e-01) (5, -1.40858724713325500488e-01) (6, -7.25165680050849914551e-02) (7, -8.86798873543739318848e-02) (8, -2.17269018292427062988e-01) (9, -5.22423148155212402344e-01) (10, -4.29787278175354003906e-01) (11, -2.79321968555450439453e-01) (12, -2.90186703205108642578e-01) (13, 6.40665180981159210205e-03) (14, 1.52332574129104614258e-01) (15, 4.57819849252700805664e-02) (16, -3.88142675161361694336e-01) (17, -4.85415905714035034180e-01) (18, -3.94402503967285156250e-01) (19, -6.20465874671936035156e-01) (20, -4.69261854887008666992e-01) (21, -3.63886982202529907227e-01) (22, -2.34331786632537841797e-01) (23, -2.52311468124389648438e-01) (24, -3.25723528861999511719e-01) (25, -3.48251998424530029297e-01) (26, -6.00453972816467285156e-01) (27, -5.01114726066589355469e-01) (28, -3.96242529153823852539e-01) (29, -5.85091590881347656250e-01) (30, -3.51954907178878784180e-01) (31, -4.13306027650833129883e-01) (32, 1.66207328438758850098e-01) (33, -5.93291044235229492188e-01) (34, -5.24948060512542724609e-01) (35, -8.98363590240478515625e-01) (36, -6.52705729007720947266e-01) (37, -4.24507349729537963867e-01) (38, -5.65780401229858398438e-01) (39, -1.59612655639648437500e-01) (40, 1.30428969860076904297e-01) (41, -1.75265118479728698730e-01) (42, -1.46368160843849182129e-01) (43, -9.48587715625762939453e-01) (44, -6.91610693931579589844e-01) (45, -3.90644788742065429688e-01) (46, -1.64619460701942443848e-01) (47, -1.30880191922187805176e-01) (48, -7.88028478622436523438e-01) (0, -2.20562845468521118164e-01) (1, -3.25519777834415435791e-02) (2, 1.62107467651367187500e-01) (3, -1.67930275201797485352e-01) (4, 2.10579961538314819336e-01) (5, -2.39537321031093597412e-02) (6, -1.02077692747116088867e-01) (7, -5.73724247515201568604e-02) (8, -3.38739722967147827148e-01) (9, 5.90725243091583251953e-01) (10, 4.00499165058135986328e-01) (11, 1.26421406865119934082e-01) (12, -3.65744769573211669922e-01) (13, -4.18020844459533691406e-01) (14, -4.41759914159774780273e-01) (15, -4.32372838258743286133e-01) (16, 4.48993504047393798828e-01) (17, 6.89890444278717041016e-01) (18, 1.94916561245918273926e-01) (19, 3.49447727203369140625e-01) (20, -1.61992385983467102051e-02) (21, 2.52092838287353515625e-01) (22, 3.14392417669296264648e-01) (23, 5.09258568286895751953e-01) (24, 6.98150217533111572266e-01) (25, 4.93706703186035156250e-01) (26, 4.98835772275924682617e-01) (27, 2.58093148469924926758e-01) (28, -1.70522898435592651367e-01) (29, 4.72492754459381103516e-01) (30, 6.03223741054534912109e-01) (31, 7.64011979103088378906e-01) (32, -1.26948282122611999512e-02) (33, 8.94969761371612548828e-01) (34, 8.75975012779235839844e-01) (35, 5.15532851219177246094e-01) (36, -1.14697106182575225830e-02) (37, 5.06113886833190917969e-01) (38, 4.24731940031051635742e-01) (39, -1.70970950275659561157e-02) (40, -6.30256012082099914551e-02) (41, 4.14696633815765380859e-01) (42, 1.03876754641532897949e-01) (43, 7.81647980213165283203e-01) (44, 1.32056862115859985352e-01) (45, 1.97516396641731262207e-01) (46, -1.72733515501022338867e-01) (47, -1.57170407474040985107e-02) (48, -1.20916259288787841797e+00) (0, 4.32760119438171386719e-02) (1, -1.38132631778717041016e-01) (2, -4.46016937494277954102e-02) (3, -1.42141684889793395996e-01) (4, -2.25304305553436279297e-01) (5, -1.31045103073120117188e-01) (6, -1.31479784846305847168e-01) (7, -9.83147919178009033203e-02) (8, 5.71056343615055084229e-02) (9, -4.39983010292053222656e-02) (10, -9.81480106711387634277e-02) (11, -1.44423112273216247559e-01) (12, -3.02680611610412597656e-01) (13, -8.83934646844863891602e-02) (14, -7.33810942620038986206e-03) (15, -2.80598670244216918945e-01) (16, 3.09915766119956970215e-02) (17, -6.70913280919194221497e-03) (18, 8.66238176822662353516e-02) (19, -1.75195157527923583984e-01) (20, -3.33393096923828125000e-01) (21, -2.62539058923721313477e-01) (22, -9.43413525819778442383e-02) (23, 1.39184430241584777832e-01) (24, -6.76918700337409973145e-02) (25, -4.60555739700794219971e-02) (26, -9.32805836200714111328e-02) (27, 1.93182080984115600586e-02) (28, -1.14900939166545867920e-01) (29, -8.28275159001350402832e-02) (30, 7.02754333615303039551e-02) (31, 9.91962477564811706543e-02) (32, -5.37379309535026550293e-02) (33, 1.26684140413999557495e-02) (34, 1.12159915268421173096e-01) (35, 5.26640447787940502167e-04) (36, -1.13343693315982818604e-01) (37, -1.53778018429875373840e-02) (38, -8.33166241645812988281e-02) (39, 7.63283669948577880859e-02) (40, 3.61855775117874145508e-02) (41, -6.75215423107147216797e-02) (42, -1.10349953174591064453e-01) (43, 6.89912065863609313965e-02) (44, -4.61460202932357788086e-02) (45, 8.57773199677467346191e-02) (46, -1.51845708489418029785e-01) (47, -2.48048920184373855591e-02) (48, -1.60548758506774902344e+00) (0, -1.56628593802452087402e-01) (1, -8.24809223413467407227e-02) (2, 1.22181482613086700439e-01) (3, -1.49947687983512878418e-01) (4, 9.31298956274986267090e-02) (5, -5.25543652474880218506e-03) (6, -3.00667941570281982422e-01) (7, -1.74301818013191223145e-01) (8, -1.53217062354087829590e-01) (9, 1.24472737312316894531e-01) (10, 1.95314183831214904785e-01) (11, 8.90109613537788391113e-02) (12, -6.87340348958969116211e-02) (13, -3.60204577445983886719e-01) (14, -3.47923964262008666992e-01) (15, -1.27220768481492996216e-02) (16, 1.05755485594272613525e-01) (17, 3.54739308357238769531e-01) (18, 1.34247932583093643188e-02) (19, 1.56231477856636047363e-01) (20, 2.88412243127822875977e-01) (21, 7.42552801966667175293e-02) (22, 4.36706632375717163086e-01) (23, 1.54199525713920593262e-01) (24, 1.79711937904357910156e-01) (25, 4.53881584107875823975e-02) (26, 4.41971905529499053955e-02) (27, -1.31142362952232360840e-01) (28, -3.27288597822189331055e-01) (29, -1.58875048160552978516e-01) (30, 1.07043832540512084961e-02) (31, 2.66526073217391967773e-01) (32, 4.77216159924864768982e-03) (33, 1.31565913558006286621e-01) (34, 8.06486904621124267578e-02) (35, -8.96274670958518981934e-02) (36, -3.45821566879749298096e-02) (37, -2.09307521581649780273e-01) (38, 1.16322383284568786621e-01) (39, -1.19054764509201049805e-01) (40, -1.17720372974872589111e-01) (41, 8.98539274930953979492e-02) (42, -2.73229837417602539062e-01) (43, -1.70647799968719482422e-01) (44, -6.26755729317665100098e-02) (45, -2.70248591899871826172e-01) (46, -1.25809937715530395508e-01) (47, -3.28588098287582397461e-01) (48, -1.66482865810394287109e+00) (0, -1.71081438660621643066e-01) (1, 7.30589358136057853699e-03) (2, -9.89587232470512390137e-02) (3, -1.30357667803764343262e-01) (4, 5.54531775414943695068e-02) (5, -3.92491780221462249756e-02) (6, -2.04406484961509704590e-01) (7, 4.25700237974524497986e-03) (8, -1.76141753792762756348e-01) (9, 2.41884379647672176361e-03) (10, 1.05177685618400573730e-01) (11, -1.22147791087627410889e-01) (12, -1.55437633395195007324e-01) (13, -2.41818517446517944336e-01) (14, -1.30529612302780151367e-01) (15, -1.73298213630914688110e-02) (16, 3.06669697165489196777e-02) (17, 6.64984360337257385254e-02) (18, 6.47248551249504089355e-02) (19, 3.81344035267829895020e-02) (20, 5.03488481044769287109e-02) (21, -2.00472585856914520264e-02) (22, 4.39678132534027099609e-02) (23, 5.19900806248188018799e-02) (24, 8.57152193784713745117e-02) (25, -2.05216687172651290894e-02) (26, 8.05465355515480041504e-02) (27, -1.28925919532775878906e-01) (28, -2.69334822893142700195e-01) (29, 6.75405636429786682129e-02) (30, 3.73131111264228820801e-02) (31, 1.40644326806068420410e-01) (32, 7.95310661196708679199e-02) (33, 7.61012285947799682617e-02) (34, 1.37277669273316860199e-03) (35, 3.92905659973621368408e-02) (36, -4.79471823200583457947e-03) (37, -7.45213255286216735840e-02) (38, 7.83513784408569335938e-02) (39, -1.25036954879760742188e-01) (40, 4.18447069823741912842e-02) (41, 3.93523685634136199951e-02) (42, -3.85307259857654571533e-02) (43, -2.92469921987503767014e-05) (44, -7.63534307479858398438e-02) (45, -1.37042939662933349609e-01) (46, -1.92860484123229980469e-01) (47, -1.70510575175285339355e-01) (48, -1.63044059276580810547e+00) (0, -2.09464311599731445312e-01) (1, -3.48477214574813842773e-02) (2, 3.60274463891983032227e-01) (3, 2.08983063697814941406e-01) (4, -2.59062230587005615234e-01) (5, -1.63818597793579101562e-01) (6, -2.32900187373161315918e-01) (7, -8.04614946246147155762e-02) (8, 1.25703334808349609375e-01) (9, 7.67179355025291442871e-02) (10, 1.98354437947273254395e-01) (11, -6.33957609534263610840e-02) (12, -4.60976690053939819336e-01) (13, -3.00675481557846069336e-01) (14, -4.99270617961883544922e-01) (15, 1.45592480897903442383e-01) (16, -9.26956981420516967773e-02) (17, 2.63617068529129028320e-01) (18, -7.08201155066490173340e-02) (19, -1.25344723463058471680e-01) (20, -4.57363367080688476562e-01) (21, -5.62152981758117675781e-01) (22, -3.33303302526473999023e-01) (23, -5.07487893104553222656e-01) (24, 3.43239665031433105469e-01) (25, -1.56974554061889648438e-01) (26, -9.35277193784713745117e-02) (27, -2.30875551700592041016e-01) (28, -6.32882535457611083984e-01) (29, -3.15536916255950927734e-01) (30, -5.45020341873168945312e-01) (31, -5.76702773571014404297e-01) (32, 7.82449543476104736328e-02) (33, -1.00402548909187316895e-01) (34, -2.29252666234970092773e-01) (35, -7.52592086791992187500e-01) (36, -8.00408661365509033203e-01) (37, -4.09274548292160034180e-01) (38, -3.70573669672012329102e-01) (39, -1.18210993707180023193e-01) (40, -1.39396458864212036133e-01) (41, -3.10678601264953613281e-01) (42, -5.07170677185058593750e-01) (43, -7.11339473724365234375e-01) (44, -6.71122610569000244141e-01) (45, -3.05336534976959228516e-01) (46, -1.83482412248849868774e-02) (47, -1.46511644124984741211e-01) (48, -1.19307541847229003906e+00) (0, -6.47288337349891662598e-02) (1, -1.13349743187427520752e-01) (2, -1.03445343673229217529e-01) (3, -1.49701237678527832031e-01) (4, -2.88244724273681640625e-01) (5, -8.98575559258460998535e-02) (6, -4.90897856652736663818e-02) (7, -9.74633842706680297852e-02) (8, -6.19511567056179046631e-02) (9, -1.69940590858459472656e-01) (10, -1.53810515999794006348e-01) (11, -2.89401561021804809570e-01) (12, -1.57117426395416259766e-01) (13, -1.96803838014602661133e-01) (14, -3.70697081089019775391e-02) (15, 1.89282465726137161255e-03) (16, -9.98111665248870849609e-02) (17, -2.70215958356857299805e-01) (18, -1.52400001883506774902e-01) (19, -3.66699486970901489258e-01) (20, -2.86944895982742309570e-01) (21, -3.24411094188690185547e-01) (22, -2.67643213272094726562e-01) (23, -2.61122643947601318359e-01) (24, -4.90793623030185699463e-02) (25, -2.63374477624893188477e-01) (26, -2.98186302185058593750e-01) (27, -3.14858108758926391602e-01) (28, -3.90827655792236328125e-01) (29, -3.24068635702133178711e-01) (30, -3.25578451156616210938e-01) (31, -3.74103844165802001953e-01) (32, 4.32443572208285331726e-03) (33, -4.18368011713027954102e-01) (34, -3.00494879484176635742e-01) (35, -4.71889704465866088867e-01) (36, -3.54194551706314086914e-01) (37, -2.36083045601844787598e-01) (38, -3.25901895761489868164e-01) (39, 1.42445368692278862000e-02) (40, -5.84180317819118499756e-02) (41, -9.75304692983627319336e-02) (42, -6.74977079033851623535e-02) (43, -5.86409509181976318359e-01) (44, -3.33907902240753173828e-01) (45, -2.69093722105026245117e-01) (46, 1.70223973691463470459e-03) (47, 4.43487726151943206787e-02) (48, -1.27961182594299316406e+00) (0, 1.24102286994457244873e-01) (1, -3.11694703996181488037e-02) (2, -1.57501801848411560059e-01) (3, -3.39827895164489746094e-01) (4, -3.55490267276763916016e-01) (5, -9.78822782635688781738e-02) (6, -3.21880429983139038086e-01) (7, -2.93023198843002319336e-01) (8, -7.06163467839360237122e-03) (9, 3.27417373657226562500e-01) (10, 3.03640872240066528320e-01) (11, 2.38862365484237670898e-01) (12, -2.93815106153488159180e-01) (13, -3.96943837404251098633e-01) (14, -1.85702487826347351074e-01) (15, -5.30292928218841552734e-01) (16, 3.57881873846054077148e-01) (17, -1.67163506150245666504e-01) (18, 4.02895659208297729492e-02) (19, 2.52866059541702270508e-01) (20, 4.59814630448818206787e-02) (21, 1.80794313549995422363e-01) (22, 1.69695198535919189453e-01) (23, 3.71446199715137481689e-02) (24, 2.99271553754806518555e-01) (25, 3.03859800100326538086e-01) (26, -1.94572225213050842285e-01) (27, 2.05251768231391906738e-01) (28, 3.24965536594390869141e-01) (29, -2.56789638660848140717e-03) (30, 6.92648291587829589844e-02) (31, 2.69070744514465332031e-01) (32, -4.52196747064590454102e-01) (33, 3.70971590280532836914e-01) (34, 1.96335956454277038574e-01) (35, -2.19539329409599304199e-01) (36, -3.74384462833404541016e-01) (37, 1.52342364192008972168e-01) (38, 4.35163289308547973633e-01) (39, -1.22455760836601257324e-01) (40, -4.81409132480621337891e-01) (41, 5.02233467996120452881e-02) (42, 1.86719801276922225952e-02) (43, 8.64581838250160217285e-02) (44, -7.35646933317184448242e-02) (45, -4.86811809241771697998e-02) (46, 3.79723124206066131592e-02) (47, -7.85329658538103103638e-03) (48, -1.97264385223388671875e+00) (0, -1.32523387670516967773e-01) (1, -7.18248635530471801758e-02) (2, -1.29538208246231079102e-01) (3, -1.35164514183998107910e-01) (4, -4.03761357069015502930e-01) (5, -1.04490846395492553711e-01) (6, -2.11156353354454040527e-01) (7, -8.87174978852272033691e-02) (8, 7.66774490475654602051e-02) (9, -9.69491899013519287109e-02) (10, -2.08502516150474548340e-01) (11, -2.86750614643096923828e-01) (12, -2.82712131738662719727e-01) (13, -1.02639988064765930176e-01) (14, -1.38221323490142822266e-01) (15, 5.66303431987762451172e-02) (16, -9.23673138022422790527e-02) (17, -7.40711838006973266602e-02) (18, -1.86296999454498291016e-01) (19, -2.49167412519454956055e-01) (20, -3.04254412651062011719e-01) (21, -3.11433672904968261719e-01) (22, -9.79163050651550292969e-02) (23, -3.17470997571945190430e-01) (24, 1.60811051726341247559e-01) (25, -2.42736876010894775391e-01) (26, -5.59096075594425201416e-02) (27, -3.59232395887374877930e-01) (28, -2.64691740274429321289e-01) (29, -3.12499195337295532227e-01) (30, -3.08570891618728637695e-01) (31, -4.10636931657791137695e-01) (32, -1.01724855601787567139e-01) (33, -2.29310795664787292480e-01) (34, -2.29074090719223022461e-01) (35, -3.37717294692993164062e-01) (36, -4.22003239393234252930e-01) (37, -2.96690702438354492188e-01) (38, -3.16595077514648437500e-01) (39, -1.71806037425994873047e-01) (40, -1.80198028683662414551e-01) (41, -1.72815889120101928711e-01) (42, -1.57838493585586547852e-01) (43, -3.26994746923446655273e-01) (44, -4.09332245588302612305e-01) (45, -1.36743918061256408691e-01) (46, -7.60279148817062377930e-02) (47, -6.52430928312242031097e-04) (48, -1.40169167518615722656e+00) (0, -1.92116618156433105469e-01) (1, -7.44682103395462036133e-02) (2, -5.07244914770126342773e-02) (3, -2.51043260097503662109e-01) (4, 1.55796915292739868164e-01) (5, -1.41636086627840995789e-02) (6, -2.09589153528213500977e-01) (7, -6.15178681910037994385e-02) (8, -4.10177350044250488281e-01) (9, 5.46009987592697143555e-02) (10, 6.07852526009082794189e-02) (11, -2.31226552277803421021e-02) (12, -1.26656994223594665527e-01) (13, -1.60933896899223327637e-01) (14, -3.19779366254806518555e-01) (15, -1.38003632426261901855e-01) (16, 1.00056312978267669678e-01) (17, 9.12073031067848205566e-02) (18, 2.17599764466285705566e-01) (19, 1.18455417454242706299e-01) (20, 1.56584322452545166016e-01) (21, 2.76846468448638916016e-01) (22, 3.03012549877166748047e-01) (23, 5.16028702259063720703e-01) (24, -1.86848305165767669678e-02) (25, -4.84540313482284545898e-02) (26, 2.18811258673667907715e-01) (27, 8.67558866739273071289e-02) (28, -1.80346235632896423340e-01) (29, 3.82999658584594726562e-01) (30, 4.21170860528945922852e-01) (31, 6.36133491992950439453e-01) (32, -5.07883902173489332199e-04) (33, 2.94067025184631347656e-01) (34, 3.29822659492492675781e-01) (35, 4.15774822235107421875e-01) (36, 2.05741956830024719238e-01) (37, 2.41419643163681030273e-01) (38, 3.98800641298294067383e-01) (39, -1.88401937484741210938e-01) (40, -1.61191355437040328979e-02) (41, 2.59054660797119140625e-01) (42, 9.44849029183387756348e-02) (43, 4.30552959442138671875e-01) (44, 5.06055802106857299805e-02) (45, 7.45636075735092163086e-02) (46, -1.98289647698402404785e-01) (47, -3.04042279720306396484e-01) (48, -1.64572679996490478516e+00) (0, 9.03589054942131042480e-02) (1, -1.05572208762168884277e-01) (2, -1.33744671940803527832e-01) (3, -6.26717656850814819336e-02) (4, -1.23597852885723114014e-01) (5, -1.65437132120132446289e-01) (6, -8.13894644379615783691e-02) (7, -2.41012945771217346191e-01) (8, -2.49572768807411193848e-02) (9, -1.10619001090526580811e-01) (10, -9.66337397694587707520e-02) (11, -2.28690057992935180664e-01) (12, -2.07287266850471496582e-01) (13, -1.59871697425842285156e-01) (14, -1.00804036483168601990e-02) (15, -1.50607779622077941895e-01) (16, -1.07547804713249206543e-01) (17, -2.64456480741500854492e-01) (18, -1.26777976751327514648e-01) (19, -1.81819051504135131836e-01) (20, -2.34610423445701599121e-01) (21, -1.72846138477325439453e-01) (22, -2.08873838186264038086e-01) (23, -1.84955745935440063477e-01) (24, -9.19145718216896057129e-02) (25, -1.64667889475822448730e-01) (26, -2.10975885391235351562e-01) (27, -2.68831998109817504883e-01) (28, -5.81084527075290679932e-02) (29, -2.52883911132812500000e-01) (30, -1.17438724264502525330e-02) (31, -1.38822481036186218262e-01) (32, -1.02300629019737243652e-01) (33, -3.19619089365005493164e-01) (34, -2.15795367956161499023e-01) (35, -3.16693902015686035156e-01) (36, -3.76415729522705078125e-01) (37, -1.99214920401573181152e-01) (38, -1.52572587132453918457e-01) (39, -6.79897516965866088867e-02) (40, -5.43906986713409423828e-02) (41, -2.19776779413223266602e-01) (42, -1.50637522339820861816e-01) (43, -2.44171574711799621582e-01) (44, -2.87490874528884887695e-01) (45, -4.41606342792510986328e-02) (46, -1.38233542442321777344e-01) (47, 2.01807785779237747192e-02) (48, -1.48388767242431640625e+00) (0, 3.08652054518461227417e-02) (1, -1.70453727245330810547e-01) (2, -9.29993912577629089355e-02) (3, -1.25026211142539978027e-01) (4, -2.62738227844238281250e-01) (5, -9.81961414217948913574e-02) (6, -3.13664153218269348145e-02) (7, 1.39766857028007507324e-02) (8, -1.17464482784271240234e-01) (9, -3.96624922752380371094e-01) (10, -1.37872710824012756348e-01) (11, -2.46297433972358703613e-01) (12, -2.40844160318374633789e-01) (13, -9.04487743973731994629e-02) (14, -4.88610658794641494751e-03) (15, -9.65350419282913208008e-02) (16, -2.19677612185478210449e-01) (17, -3.89701724052429199219e-01) (18, -2.46369168162345886230e-01) (19, -2.60872542858123779297e-01) (20, -3.01298916339874267578e-01) (21, -2.42627233266830444336e-01) (22, -1.81688129901885986328e-01) (23, -1.36791840195655822754e-01) (24, -3.84300023317337036133e-01) (25, -3.47795337438583374023e-01) (26, -3.01241844892501831055e-01) (27, -4.23624694347381591797e-01) (28, -2.41237148642539978027e-01) (29, -3.67516636848449707031e-01) (30, -2.24980413913726806641e-01) (31, -1.77137225866317749023e-01) (32, -7.55396410822868347168e-02) (33, -5.16027271747589111328e-01) (34, -3.23551774024963378906e-01) (35, -6.06662213802337646484e-01) (36, -4.13995891809463500977e-01) (37, -1.80416971445083618164e-01) (38, -3.31237196922302246094e-01) (39, -1.05546824634075164795e-01) (40, -3.37595380842685699463e-02) (41, -1.46235555410385131836e-01) (42, -1.03905536234378814697e-01) (43, -6.62064015865325927734e-01) (44, -4.16897296905517578125e-01) (45, -2.43529871106147766113e-01) (46, -7.11215808987617492676e-02) (47, -9.00551229715347290039e-02) (48, -1.26897966861724853516e+00) (0, 9.10831838846206665039e-02) (1, -2.76430547237396240234e-01) (2, -4.35912370681762695312e-01) (3, -1.74169346690177917480e-01) (4, -4.47027772665023803711e-01) (5, -1.64406448602676391602e-01) (6, 7.41985440254211425781e-02) (7, -1.42037808895111083984e-01) (8, -3.39832268655300140381e-02) (9, -5.24898409843444824219e-01) (10, -4.44199204444885253906e-01) (11, -4.51696604490280151367e-01) (12, -1.67739063501358032227e-01) (13, -6.57850801944732666016e-02) (14, 1.09560079872608184814e-01) (15, 2.25754424929618835449e-01) (16, -2.54338175058364868164e-01) (17, -5.98295807838439941406e-01) (18, -3.23679417371749877930e-01) (19, -7.51231789588928222656e-01) (20, -6.52422308921813964844e-01) (21, -5.64515173435211181641e-01) (22, -3.29524010419845581055e-01) (23, -4.42013531923294067383e-01) (24, -8.97273346781730651855e-02) (25, -2.84963190555572509766e-01) (26, -4.80714291334152221680e-01) (27, -7.26658880710601806641e-01) (28, -5.60745298862457275391e-01) (29, -5.39542257785797119141e-01) (30, -4.37787622213363647461e-01) (31, -7.75751471519470214844e-01) (32, 1.71049550175666809082e-01) (33, -6.07134282588958740234e-01) (34, -5.44901967048645019531e-01) (35, -8.55338752269744873047e-01) (36, -8.01146745681762695312e-01) (37, -6.30938053131103515625e-01) (38, -6.27766847610473632812e-01) (39, -1.37230664491653442383e-01) (40, 4.37239073216915130615e-02) (41, -2.18066200613975524902e-01) (42, -2.56943749263882637024e-03) (43, -7.75804638862609863281e-01) (44, -7.21498787403106689453e-01) (45, -4.04125213623046875000e-01) (46, -1.04984395205974578857e-01) (47, -1.28326900303363800049e-02) (48, -6.04461252689361572266e-01) (0, 1.50637581944465637207e-01) (1, 1.70609056949615478516e-02) (2, 2.23057091236114501953e-01) (3, 2.38419756293296813965e-01) (4, -2.25352913141250610352e-01) (5, 4.56912256777286529541e-02) (6, -3.88598293066024780273e-01) (7, -3.00281643867492675781e-01) (8, 4.24718298017978668213e-02) (9, -1.37166216969490051270e-01) (10, -5.33955357968807220459e-02) (11, -2.81663686037063598633e-01) (12, 2.56152957677841186523e-01) (13, 1.88685268163681030273e-01) (14, 7.73465856909751892090e-02) (15, -3.00549685955047607422e-01) (16, 1.70084089040756225586e-01) (17, -3.58070224523544311523e-01) (18, -2.25381448864936828613e-01) (19, -6.74398541450500488281e-02) (20, -4.04114395380020141602e-01) (21, -1.58821363002061843872e-02) (22, -3.46670411527156829834e-02) (23, 2.49940440058708190918e-01) (24, 6.90368586219847202301e-04) (25, -9.48591902852058410645e-02) (26, -1.47280499339103698730e-01) (27, -3.42361390590667724609e-01) (28, 6.25249966979026794434e-02) (29, -1.98457226157188415527e-01) (30, 2.56900489330291748047e-01) (31, 7.89048671722412109375e-02) (32, -2.70534187555313110352e-01) (33, -2.36930072307586669922e-01) (34, -1.00753717124462127686e-01) (35, -4.08297270536422729492e-01) (36, -4.22295033931732177734e-01) (37, -1.07412412762641906738e-01) (38, -9.40559655427932739258e-02) (39, -2.30424967594444751740e-03) (40, -3.00095021724700927734e-01) (41, -1.88041344285011291504e-01) (42, -1.85633957386016845703e-01) (43, -2.33251631259918212891e-01) (44, -2.09553197026252746582e-01) (45, -9.13492888212203979492e-02) (46, -5.32253868877887725830e-02) (47, 4.44133952260017395020e-02) (48, -1.71644651889801025391e+00) (0, -5.28286490589380264282e-03) (1, -4.53921891748905181885e-02) (2, -8.69264602661132812500e-02) (3, -7.94492140412330627441e-02) (4, -2.17748537659645080566e-01) (5, -1.20570927858352661133e-01) (6, -2.93706506490707397461e-01) (7, -1.67848140001296997070e-01) (8, 1.17241144180297851562e-01) (9, -1.97640225291252136230e-01) (10, -6.42007738351821899414e-02) (11, -2.25765526294708251953e-01) (12, -1.84747219085693359375e-01) (13, -5.03269582986831665039e-02) (14, 8.02090205252170562744e-03) (15, -9.60297584533691406250e-02) (16, -1.34901523590087890625e-01) (17, -1.03131502866744995117e-01) (18, -1.03286683559417724609e-01) (19, -1.98685169219970703125e-01) (20, -3.46453547477722167969e-01) (21, -1.52328774333000183105e-01) (22, -9.04673710465431213379e-02) (23, -2.16526508331298828125e-01) (24, -1.43707573413848876953e-01) (25, -2.13441401720046997070e-01) (26, -1.06862701475620269775e-01) (27, -2.91144073009490966797e-01) (28, -1.71302050352096557617e-01) (29, -2.74473756551742553711e-01) (30, -1.74767002463340759277e-01) (31, -7.89445042610168457031e-02) (32, -6.64147138595581054688e-02) (33, -2.52045720815658569336e-01) (34, -2.00981840491294860840e-01) (35, -3.09923410415649414062e-01) (36, -2.39961743354797363281e-01) (37, -1.37787848711013793945e-01) (38, -9.41698774695396423340e-02) (39, -1.04784257709980010986e-02) (40, -6.06807060539722442627e-02) (41, -1.15672402083873748779e-01) (42, -5.85844814777374267578e-02) (43, -2.37456575036048889160e-01) (44, -2.77306914329528808594e-01) (45, -8.87041315436363220215e-02) (46, -3.45091558992862701416e-02) (47, 3.32527123391628265381e-02) (48, -1.49050450325012207031e+00) (0, -7.95777328312397003174e-03) (1, 1.63957521319389343262e-01) (2, 1.63185954093933105469e-01) (3, -1.18704780936241149902e-01) (4, -1.45341092720627784729e-02) (5, 5.25148250162601470947e-02) (6, -2.12430104613304138184e-01) (7, -1.53527066111564636230e-01) (8, 3.99535298347473144531e-02) (9, 3.72676253318786621094e-01) (10, 2.79332280158996582031e-01) (11, 4.49126847088336944580e-02) (12, -2.60153412818908691406e-01) (13, -2.10627719759941101074e-01) (14, -1.50685131549835205078e-01) (15, -4.83405947685241699219e-01) (16, 4.01467293500900268555e-01) (17, 3.40283751487731933594e-01) (18, 4.56595160067081451416e-02) (19, 1.72792658209800720215e-01) (20, -3.49238187074661254883e-01) (21, 4.84838448464870452881e-02) (22, 3.37664596736431121826e-02) (23, 5.62380135059356689453e-01) (24, 4.60861623287200927734e-01) (25, 3.06607782840728759766e-01) (26, 3.93748730421066284180e-01) (27, 1.93190366029739379883e-01) (28, 5.47595694661140441895e-03) (29, 2.85099446773529052734e-01) (30, 4.28408771753311157227e-01) (31, 5.62924027442932128906e-01) (32, -9.12216156721115112305e-02) (33, 5.50686419010162353516e-01) (34, 4.92905318737030029297e-01) (35, 3.04737389087677001953e-01) (36, -3.63875292241573333740e-02) (37, 3.98432254791259765625e-01) (38, 2.31273531913757324219e-01) (39, 1.42402350902557373047e-01) (40, -2.39997208118438720703e-01) (41, 1.18845112621784210205e-01) (42, -5.05734570324420928955e-02) (43, 4.96555000543594360352e-01) (44, 2.95494765043258666992e-01) (45, 1.47171497344970703125e-01) (46, 1.94635510444641113281e-01) (47, 2.19298228621482849121e-01) (48, -1.71787273883819580078e+00) (0, -1.99193209409713745117e-01) (1, -6.42578154802322387695e-02) (2, -6.32285401225090026855e-02) (3, -9.82131212949752807617e-02) (4, 1.04612678289413452148e-01) (5, -5.83555214107036590576e-02) (6, -6.91767260432243347168e-02) (7, -7.74652585387229919434e-02) (8, -1.55652090907096862793e-01) (9, -1.50488121435046195984e-02) (10, -8.95047734957188367844e-04) (11, -2.66980640590190887451e-02) (12, -1.95816874504089355469e-01) (13, -1.03920564055442810059e-01) (14, -1.78072720766067504883e-01) (15, -1.33762434124946594238e-01) (16, -6.85351043939590454102e-02) (17, 2.90678869932889938354e-02) (18, 1.46200489252805709839e-02) (19, 7.84839168190956115723e-02) (20, -7.34823495149612426758e-02) (21, 2.63403495773673057556e-03) (22, 5.77822253108024597168e-02) (23, 4.59284000098705291748e-02) (24, 1.09415985643863677979e-01) (25, -5.42212761938571929932e-02) (26, 1.74273058772087097168e-01) (27, 7.51441493630409240723e-02) (28, -1.19472905993461608887e-01) (29, 1.11271888017654418945e-01) (30, 8.40784758329391479492e-02) (31, 2.56033480167388916016e-01) (32, -6.34335875511169433594e-02) (33, 1.61971747875213623047e-01) (34, 2.52684056758880615234e-01) (35, 3.51332835853099822998e-02) (36, -2.48334743082523345947e-03) (37, 5.46648912131786346436e-02) (38, 9.61895883083343505859e-02) (39, -1.31739154458045959473e-01) (40, 6.52085384353995323181e-03) (41, 1.41478613018989562988e-01) (42, 6.17342628538608551025e-02) (43, 6.87360689043998718262e-02) (44, 1.51908090338110923767e-02) (45, -3.72020788490772247314e-02) (46, -1.27706810832023620605e-01) (47, -9.69955623149871826172e-02) (48, -1.64325237274169921875e+00) (0, 6.79120421409606933594e-02) (1, -1.13348349928855895996e-01) (2, -1.41653478145599365234e-01) (3, -1.07112638652324676514e-01) (4, -4.56238955259323120117e-01) (5, -1.91818371415138244629e-01) (6, -1.69062137603759765625e-01) (7, -2.80694603919982910156e-01) (8, 7.52184540033340454102e-02) (9, -2.31365397572517395020e-01) (10, -3.91411185264587402344e-01) (11, -2.30182468891143798828e-01) (12, -1.37455090880393981934e-01) (13, -1.69354140758514404297e-01) (14, -2.81080175191164016724e-02) (15, -2.15719357132911682129e-01) (16, 3.67193110287189483643e-02) (17, -1.06603465974330902100e-01) (18, -8.38239565491676330566e-02) (19, -4.07555133104324340820e-01) (20, -4.94176357984542846680e-01) (21, -3.13536763191223144531e-01) (22, -7.23551735281944274902e-02) (23, -3.22936356067657470703e-01) (24, 2.48091649264097213745e-02) (25, -2.42253735661506652832e-01) (26, -3.85975353419780731201e-02) (27, -2.14115306735038757324e-01) (28, -1.23769350349903106689e-01) (29, -3.77667188644409179688e-01) (30, -1.82462260127067565918e-01) (31, -4.19179260730743408203e-01) (32, -2.08470553159713745117e-01) (33, -3.12093138694763183594e-01) (34, -2.74608105421066284180e-01) (35, -3.28901082277297973633e-01) (36, -4.62415754795074462891e-01) (37, -2.21588864922523498535e-01) (38, -2.81354665756225585938e-01) (39, -1.92934170365333557129e-01) (40, -7.58865326642990112305e-02) (41, -2.11197465658187866211e-01) (42, -4.61251102387905120850e-02) (43, -2.88628786802291870117e-01) (44, -3.36795806884765625000e-01) (45, -1.25374585390090942383e-01) (46, -2.71684862673282623291e-02) (47, 1.10763488337397575378e-02) (48, -1.39880263805389404297e+00) (0, 1.96554269641637802124e-02) (1, -4.75931838154792785645e-02) (2, -1.91162511706352233887e-01) (3, -1.55189275741577148438e-01) (4, -4.60758626461029052734e-01) (5, -3.29783231019973754883e-01) (6, -1.49299964308738708496e-01) (7, 2.44984291493892669678e-02) (8, 3.43273952603340148926e-02) (9, -5.01966357231140136719e-01) (10, -2.35132560133934020996e-01) (11, -2.68031835556030273438e-01) (12, -2.85922735929489135742e-01) (13, -1.72244086861610412598e-01) (14, 1.34514197707176208496e-01) (15, -3.47350090742111206055e-02) (16, -4.67885732650756835938e-01) (17, -5.88798463344573974609e-01) (18, -3.49059671163558959961e-01) (19, -3.90651166439056396484e-01) (20, -4.68771517276763916016e-01) (21, -3.82648080587387084961e-01) (22, -3.00167083740234375000e-01) (23, -4.04609352350234985352e-01) (24, -4.59861367940902709961e-01) (25, -5.18421232700347900391e-01) (26, -5.97330629825592041016e-01) (27, -5.28912425041198730469e-01) (28, -5.05778849124908447266e-01) (29, -5.63575267791748046875e-01) (30, -6.03829324245452880859e-01) (31, -4.63588744401931762695e-01) (32, -2.21199259161949157715e-01) (33, -6.19525730609893798828e-01) (34, -6.69200658798217773438e-01) (35, -1.09732127189636230469e+00) (36, -4.93287414312362670898e-01) (37, -4.44117009639739990234e-01) (38, -4.75533902645111083984e-01) (39, -1.15745340008288621902e-03) (40, 1.76601469516754150391e-01) (41, -2.59416669607162475586e-01) (42, -6.65000081062316894531e-02) (43, -1.30681574344635009766e+00) (44, -7.21199750900268554688e-01) (45, -4.08529669046401977539e-01) (46, -5.19640929996967315674e-02) (47, -6.63412129506468772888e-03) (48, -5.27957975864410400391e-01) (0, -3.89813072979450225830e-02) (1, -1.55436038970947265625e-01) (2, -3.06448221206665039062e-01) (3, -7.97828892245888710022e-04) (4, -3.08539539575576782227e-01) (5, -1.23986952006816864014e-01) (6, -1.48536771535873413086e-01) (7, -1.54831975698471069336e-01) (8, 7.71491155028343200684e-02) (9, -4.29184079170227050781e-01) (10, -3.32425296306610107422e-01) (11, -4.13509845733642578125e-01) (12, -1.29732266068458557129e-01) (13, -1.17377161979675292969e-01) (14, 5.01304343342781066895e-02) (15, 9.23610012978315353394e-03) (16, -3.60517263412475585938e-01) (17, -5.10816991329193115234e-01) (18, -4.11720544099807739258e-01) (19, -4.51713114976882934570e-01) (20, -4.19770032167434692383e-01) (21, -3.00596475601196289062e-01) (22, -3.46884131431579589844e-01) (23, -3.72236281633377075195e-01) (24, -2.68229961395263671875e-01) (25, -3.77941370010375976562e-01) (26, -5.04720866680145263672e-01) (27, -6.15633726119995117188e-01) (28, -4.23863291740417480469e-01) (29, -4.86165881156921386719e-01) (30, -4.64075028896331787109e-01) (31, -5.22331535816192626953e-01) (32, -2.42428015917539596558e-02) (33, -6.50539398193359375000e-01) (34, -6.01383447647094726562e-01) (35, -7.56713807582855224609e-01) (36, -6.25854492187500000000e-01) (37, -3.82614791393280029297e-01) (38, -4.88907247781753540039e-01) (39, 1.04181226342916488647e-02) (40, -7.04797208309173583984e-02) (41, -2.54041314125061035156e-01) (42, -9.82067808508872985840e-02) (43, -9.04644072055816650391e-01) (44, -5.50870954990386962891e-01) (45, -3.06131541728973388672e-01) (46, -1.46693050861358642578e-01) (47, 8.05711820721626281738e-02) (48, -8.28426420688629150391e-01) (0, -3.68194803595542907715e-02) (1, -1.10205739736557006836e-01) (2, -6.52983263134956359863e-02) (3, -1.27055540680885314941e-01) (4, -2.33090505003929138184e-01) (5, -1.53309807181358337402e-01) (6, -1.51469841599464416504e-01) (7, -2.70679712295532226562e-01) (8, -2.70424950867891311646e-02) (9, -1.44523128867149353027e-01) (10, -2.35719814896583557129e-01) (11, -2.96266913414001464844e-01) (12, -9.15579125285148620605e-03) (13, 1.86598878353834152222e-02) (14, 1.11159466207027435303e-01) (15, -3.17375034093856811523e-01) (16, -1.00246302783489227295e-01) (17, -1.93416789174079895020e-01) (18, -2.51047402620315551758e-01) (19, -2.60751008987426757812e-01) (20, -4.95135098695755004883e-01) (21, -1.35546818375587463379e-01) (22, -3.44467349350452423096e-02) (23, -1.38277048245072364807e-02) (24, -2.84505262970924377441e-02) (25, -1.80113941431045532227e-01) (26, -1.59551396965980529785e-01) (27, -2.52566158771514892578e-01) (28, -2.56855249404907226562e-01) (29, -3.33278328180313110352e-01) (30, 3.51096875965595245361e-02) (31, -1.45496398210525512695e-01) (32, -6.11459091305732727051e-02) (33, -2.06145584583282470703e-01) (34, -1.08442977070808410645e-01) (35, -3.23310077190399169922e-01) (36, -4.01076763868331909180e-01) (37, -2.47669741511344909668e-01) (38, -2.17281669378280639648e-01) (39, -1.45046800374984741211e-01) (40, -1.83482050895690917969e-01) (41, -2.64180302619934082031e-01) (42, -1.48997098207473754883e-01) (43, -1.61076277494430541992e-01) (44, -2.20817849040031433105e-01) (45, -2.65596628189086914062e-01) (46, -2.33970716595649719238e-01) (47, 2.66100447624921798706e-02) (48, -1.52763962745666503906e+00) (0, -1.44756674766540527344e-01) (1, -7.24084973335266113281e-02) (2, -2.11714103817939758301e-01) (3, -5.85928894579410552979e-02) (4, -3.05122613906860351562e-01) (5, -6.99484795331954956055e-02) (6, -8.22863280773162841797e-02) (7, 5.93595393002033233643e-02) (8, -9.27783027291297912598e-02) (9, -1.55416950583457946777e-01) (10, -1.59296050667762756348e-01) (11, -1.75584316253662109375e-01) (12, -2.06731855869293212891e-01) (13, -1.71856328845024108887e-01) (14, -9.11832377314567565918e-02) (15, 7.20511972904205322266e-02) (16, -1.36357858777046203613e-01) (17, -1.87500327825546264648e-01) (18, -2.20332473516464233398e-01) (19, -3.66348057985305786133e-01) (20, -3.41186523437500000000e-01) (21, -3.02857756614685058594e-01) (22, -2.56568580865859985352e-01) (23, -3.70099633932113647461e-01) (24, -9.43541601300239562988e-02) (25, -2.70018130540847778320e-01) (26, -3.46385568380355834961e-01) (27, -2.47458562254905700684e-01) (28, -3.86656790971755981445e-01) (29, -3.31357359886169433594e-01) (30, -3.04292351007461547852e-01) (31, -3.98960024118423461914e-01) (32, 6.15161694586277008057e-02) (33, -2.19121411442756652832e-01) (34, -3.77941280603408813477e-01) (35, -4.88899588584899902344e-01) (36, -3.52500885725021362305e-01) (37, -2.81145274639129638672e-01) (38, -3.08890342712402343750e-01) (39, -8.98070856928825378418e-02) (40, -3.12042068690061569214e-02) (41, -1.61046743392944335938e-01) (42, -1.96017026901245117188e-01) (43, -6.34208440780639648438e-01) (44, -3.61447453498840332031e-01) (45, -2.87980556488037109375e-01) (46, -1.01147629320621490479e-01) (47, -9.73413810133934020996e-02) (48, -1.22497344017028808594e+00) (0, -3.51248048245906829834e-02) (1, -1.89965963363647460938e-01) (2, -1.34660720825195312500e-01) (3, -2.45892137289047241211e-01) (4, -3.42635124921798706055e-01) (5, -2.06893116235733032227e-01) (6, -8.81194397807121276855e-02) (7, -3.18348295986652374268e-02) (8, -1.53983861207962036133e-01) (9, -5.16563773155212402344e-01) (10, -1.43137276172637939453e-01) (11, -3.35162431001663208008e-01) (12, -2.55841940641403198242e-01) (13, -8.74419435858726501465e-02) (14, 1.55741780996322631836e-01) (15, -1.23110506683588027954e-02) (16, -4.74684536457061767578e-01) (17, -6.22687220573425292969e-01) (18, -3.05683225393295288086e-01) (19, -4.06235873699188232422e-01) (20, -3.16277265548706054688e-01) (21, -3.24062228202819824219e-01) (22, -2.09072619676589965820e-01) (23, -4.47489842772483825684e-02) (24, -4.32427018880844116211e-01) (25, -3.47929745912551879883e-01) (26, -5.01469910144805908203e-01) (27, -3.80405813455581665039e-01) (28, -4.10442739725112915039e-01) (29, -3.74733448028564453125e-01) (30, -2.96862155199050903320e-01) (31, -1.72916427254676818848e-01) (32, -1.82027325034141540527e-01) (33, -6.10057711601257324219e-01) (34, -6.21944546699523925781e-01) (35, -6.42153561115264892578e-01) (36, -4.06430780887603759766e-01) (37, -2.87077158689498901367e-01) (38, -3.28687041997909545898e-01) (39, -6.17714859545230865479e-02) (40, 1.99120044708251953125e-01) (41, -1.65522068738937377930e-01) (42, -6.64867237210273742676e-02) (43, -8.09772372245788574219e-01) (44, -4.96858894824981689453e-01) (45, -3.29879343509674072266e-01) (46, -9.60178822278976440430e-02) (47, -3.44780124723911285400e-02) (48, -1.15588784217834472656e+00) (0, -1.13465644419193267822e-01) (1, -1.93359389901161193848e-01) (2, 1.30165750160813331604e-02) (3, -2.28713840246200561523e-01) (4, -1.17901898920536041260e-01) (5, -4.78972531855106353760e-02) (6, -5.59688359498977661133e-02) (7, 8.56980979442596435547e-02) (8, -1.92214891314506530762e-01) (9, -1.09353333711624145508e-01) (10, -1.04731306433677673340e-01) (11, -2.02182382345199584961e-01) (12, -3.60789418220520019531e-01) (13, -1.60384088754653930664e-01) (14, -1.45341098308563232422e-01) (15, 1.28010949119925498962e-02) (16, -1.98966115713119506836e-01) (17, -9.11265090107917785645e-02) (18, -8.76424461603164672852e-02) (19, -1.11049942672252655029e-01) (20, -4.51583266258239746094e-02) (21, -1.15099497139453887939e-01) (22, -1.65488962084054946899e-02) (23, -1.83892119675874710083e-02) (24, -6.11329749226570129395e-02) (25, -1.46262809634208679199e-01) (26, -2.44409367442131042480e-01) (27, -1.74565598368644714355e-01) (28, -1.94638758897781372070e-01) (29, 7.13266804814338684082e-03) (30, 6.07994049787521362305e-02) (31, 3.15281711518764495850e-02) (32, 6.93699195981025695801e-02) (33, -1.02994643151760101318e-01) (34, -1.57409742474555969238e-01) (35, -1.91115122288465499878e-02) (36, -1.02686546742916107178e-01) (37, -1.02755688130855560303e-01) (38, 8.90596956014633178711e-02) (39, -9.62905306369066238403e-03) (40, 6.66433274745941162109e-02) (41, 3.55271250009536743164e-02) (42, 6.98940902948379516602e-02) (43, -9.70370769500732421875e-02) (44, -1.21713317930698394775e-01) (45, -1.38990744948387145996e-01) (46, -6.53517767786979675293e-02) (47, -1.63738191127777099609e-01) (48, -1.59721958637237548828e+00) (0, -2.24356234073638916016e-01) (1, -4.93752151727676391602e-01) (2, -8.92995476722717285156e-01) (3, -6.05133593082427978516e-01) (4, -7.89590954780578613281e-01) (5, -1.35382518172264099121e-01) (6, -5.15159547328948974609e-01) (7, -3.98065209388732910156e-01) (8, -1.73406437039375305176e-01) (9, -4.25549417734146118164e-01) (10, -2.32931360602378845215e-01) (11, -3.22610378265380859375e-01) (12, -9.99380886554718017578e-01) (13, -5.85844218730926513672e-01) (14, -7.41295218467712402344e-01) (15, -6.45330965518951416016e-01) (16, 4.53991055488586425781e-01) (17, -1.37912333011627197266e-01) (18, 1.03464007377624511719e-01) (19, -6.69904887676239013672e-01) (20, -7.98657715320587158203e-01) (21, -6.41333520412445068359e-01) (22, -3.96655112504959106445e-01) (23, -8.33024442195892333984e-01) (24, 8.92719566822052001953e-01) (25, 3.86259138584136962891e-01) (26, 4.63121265172958374023e-01) (27, -6.70680552721023559570e-02) (28, -1.30526468157768249512e-01) (29, -6.27132594585418701172e-01) (30, -3.30985099077224731445e-01) (31, -8.20658326148986816406e-01) (32, -6.82478249073028564453e-01) (33, 1.03782147169113159180e-01) (34, 4.31590944528579711914e-01) (35, 4.25845444202423095703e-01) (36, -5.25931060314178466797e-01) (37, -1.63995906710624694824e-01) (38, -4.51502025127410888672e-01) (39, -6.19383811950683593750e-01) (40, 